/*
 * Copyright (c) 2025 EdgeImpulse Inc.
 *
 * Generated by Edge Impulse and licensed under the applicable Edge Impulse
 * Terms of Service. Community and Professional Terms of Service
 * (https://edgeimpulse.com/legal/terms-of-service) or Enterprise Terms of
 * Service (https://edgeimpulse.com/legal/enterprise-terms-of-service),
 * according to your product plan subscription (the “License”).
 *
 * This software, documentation and other associated files (collectively referred
 * to as the “Software”) is a single SDK variation generated by the Edge Impulse
 * platform and requires an active paid Edge Impulse subscription to use this
 * Software for any purpose.
 *
 * You may NOT use this Software unless you have an active Edge Impulse subscription
 * that meets the eligibility requirements for the applicable License, subject to
 * your full and continued compliance with the terms and conditions of the License,
 * including without limitation any usage restrictions under the applicable License.
 *
 * If you do not have an active Edge Impulse product plan subscription, or if use
 * of this Software exceeds the usage limitations of your Edge Impulse product plan
 * subscription, you are not permitted to use this Software and must immediately
 * delete and erase all copies of this Software within your control or possession.
 * Edge Impulse reserves all rights and remedies available to enforce its rights.
 *
 * Unless required by applicable law or agreed to in writing, the Software is
 * distributed on an "AS IS" BASIS, WITHOUT WARRANTIES OR CONDITIONS OF ANY KIND,
 * either express or implied. See the License for the specific language governing
 * permissions, disclaimers and limitations under the License.
 */
// Generated on: 13.12.2025 15:38:07

#include <stdio.h>
#include <stdlib.h>
#include "edge-impulse-sdk/tensorflow/lite/c/builtin_op_data.h"
#include "edge-impulse-sdk/tensorflow/lite/c/common.h"
#include "edge-impulse-sdk/tensorflow/lite/micro/micro_mutable_op_resolver.h"
#include "edge-impulse-sdk/porting/ei_classifier_porting.h"

#if EI_CLASSIFIER_PRINT_STATE
#if defined(__cplusplus) && EI_C_LINKAGE == 1
extern "C" {
    extern void ei_printf(const char *format, ...);
}
#else
extern void ei_printf(const char *format, ...);
#endif
#endif

#define STRINGIZE(x) #x
#define STRINGIZE_VALUE_OF(x) STRINGIZE(x)

#if defined (__GNUC__)  /* GNU compiler */
#define ALIGN(X) __attribute__((aligned(X)))
#define DEFINE_SECTION(x) __attribute__((section(x)))
#elif defined (_MSC_VER)
#define ALIGN(X) __declspec(align(X))
#elif defined (__TASKING__) /* TASKING Compiler */
#define ALIGN(X) __align(X)
#define DEFINE_SECTION(x) __attribute__((section(x)))
#elif defined (__ARMCC_VERSION) /* Arm Compiler */
#define ALIGN(X) __ALIGNED(x)
#define DEFINE_SECTION(x) __attribute__((section(x)))
#elif defined (__ICCARM__) /* IAR Compiler */
#define ALIGN(x) __attribute__((aligned(x)))
#define DEFINE_SECTION(x) __attribute__((section(x)))
#elif defined (__clang__) /* LLVM/Clang Compiler */
#define ALIGN(X) __ALIGNED(x)
#define DEFINE_SECTION(x) __attribute__((section(x)))
#endif

#if defined(EI_MODEL_SECTION) && (defined(__GNUC__) || defined(__clang__))
#define MODEL_SECTION(X) __attribute__((section(STRINGIZE_VALUE_OF(X))))
#else
#define MODEL_SECTION(X)
#endif

#ifndef EI_MAX_SCRATCH_BUFFER_COUNT
#ifndef CONFIG_IDF_TARGET_ESP32S3
#define EI_MAX_SCRATCH_BUFFER_COUNT 14
#else
#define EI_MAX_SCRATCH_BUFFER_COUNT 28
#endif // CONFIG_IDF_TARGET_ESP32S3
#endif // EI_MAX_SCRATCH_BUFFER_COUNT

#ifndef EI_MAX_OVERFLOW_BUFFER_COUNT
#define EI_MAX_OVERFLOW_BUFFER_COUNT 10
#endif // EI_MAX_OVERFLOW_BUFFER_COUNT

using namespace tflite;
using namespace tflite::ops;
using namespace tflite::ops::micro;

namespace {

#if defined(EI_CLASSIFIER_ALLOCATION_STATIC_HIMAX) || defined(EI_CLASSIFIER_ALLOCATION_STATIC_HIMAX_GNU)
constexpr int kTensorArenaSize = 242592;
#else
constexpr int kTensorArenaSize = 241568;
#endif

#if defined(EI_CLASSIFIER_ALLOCATION_STATIC)
#if defined (EI_TENSOR_ARENA_LOCATION)
uint8_t tensor_arena[kTensorArenaSize] ALIGN(16) DEFINE_SECTION(STRINGIZE_VALUE_OF(EI_TENSOR_ARENA_LOCATION));
#else
uint8_t tensor_arena[kTensorArenaSize] ALIGN(16);
#endif
#elif defined(EI_CLASSIFIER_ALLOCATION_STATIC_HIMAX)
#pragma Bss(".tensor_arena")
uint8_t tensor_arena[kTensorArenaSize] ALIGN(16);
#pragma Bss()
#elif defined(EI_CLASSIFIER_ALLOCATION_STATIC_HIMAX_GNU)
uint8_t tensor_arena[kTensorArenaSize] ALIGN(16) __attribute__((section(".tensor_arena")));
#else
#define EI_CLASSIFIER_ALLOCATION_HEAP 1
uint8_t* tensor_arena = NULL;
#endif

static uint8_t* tensor_boundary;
static uint8_t* current_location;

template <int SZ, class T> struct TfArray {
  int sz; T elem[SZ];
};

enum used_operators_e {
  OP_CONV_2D, OP_DEPTHWISE_CONV_2D, OP_PAD, OP_ADD, OP_SOFTMAX,  OP_LAST
};

struct TensorInfo_t { // subset of TfLiteTensor used for initialization from constant memory
  TfLiteAllocationType allocation_type;
  TfLiteType type;
  void* data;
  TfLiteIntArray* dims;
  size_t bytes;
  TfLiteQuantization quantization;
};

typedef struct {
  TfLiteTensor tensor;
  int16_t index;
} TfLiteTensorWithIndex;

typedef struct {
  TfLiteEvalTensor tensor;
  int16_t index;
} TfLiteEvalTensorWithIndex;

TfLiteContext ctx{};
static const int MAX_TFL_TENSOR_COUNT = 4;
static TfLiteTensorWithIndex tflTensors[MAX_TFL_TENSOR_COUNT];
static const int MAX_TFL_EVAL_COUNT = 4;
static TfLiteEvalTensorWithIndex tflEvalTensors[MAX_TFL_EVAL_COUNT];
TfLiteRegistration registrations[OP_LAST];

namespace g0 {
const TfArray<4, int> tensor_dimension0 = { 4, { 1,96,96,1 } };
const TfArray<1, float> quant0_scale = { 1, { 0.0039215688593685627, } };
const TfArray<1, int> quant0_zero = { 1, { -128 } };
const TfLiteAffineQuantization quant0 = { (TfLiteFloatArray*)&quant0_scale, (TfLiteIntArray*)&quant0_zero, 0 };
const MODEL_SECTION(EI_MODEL_SECTION) ALIGN(16) int32_t tensor_data1[4*2] = { 
  0, 0, 
  0, 1, 
  0, 1, 
  0, 0, 
};
const TfArray<2, int> tensor_dimension1 = { 2, { 4,2 } };
const MODEL_SECTION(EI_MODEL_SECTION) ALIGN(8) int32_t tensor_data2[3] = { 38758, -42222, -41199, };
const TfArray<1, int> tensor_dimension2 = { 1, { 3 } };
const TfArray<3, float> quant2_scale = { 3, { 0.00012808330939151347, 0.0001355515414616093, 0.00013383600162342191, } };
const TfArray<3, int> quant2_zero = { 3, { 0,0,0 } };
const TfLiteAffineQuantization quant2 = { (TfLiteFloatArray*)&quant2_scale, (TfLiteIntArray*)&quant2_zero, 0 };
const MODEL_SECTION(EI_MODEL_SECTION) ALIGN(16) int8_t tensor_data3[3*1*1*32] = { 
  /* [0][0][][] */ 89,75,119,-89,-60,8,-28,32,-13,53,37,-39,-33,-100,81,26,-59,87,78,108,-27,-31,44,-111,-127,113,-62,17,84,5,-24,-7, 
  /* [1][0][][] */ 57,-31,-67,25,-10,127,-26,-3,122,-47,2,-73,-63,107,43,-46,93,-43,-4,-89,-106,27,115,74,28,25,2,-24,-75,-50,-1,-28, 
  /* [2][0][][] */ -29,81,-75,83,87,-37,-30,116,95,36,127,-10,-98,-82,91,119,-78,-51,1,-109,74,120,-44,-84,94,-52,-16,-127,13,-71,85,-20, 
};
const TfArray<4, int> tensor_dimension3 = { 4, { 3,1,1,32 } };
const TfArray<3, float> quant3_scale = { 3, { 0.0032010741997510195, 0.0033877212554216385, 0.0033448461908847094, } };
const TfLiteAffineQuantization quant3 = { (TfLiteFloatArray*)&quant3_scale, (TfLiteIntArray*)&g0::quant2_zero, 0 };
const MODEL_SECTION(EI_MODEL_SECTION) ALIGN(16) int32_t tensor_data4[32] = { 253, 393, -369, 475, 512, 530, -157, 440, 482, -201, 444, -75, -258, 514, 474, 405, -21, -351, -434, -470, -511, 461, 368, -218, 489, 94, -410, 660, 680, -452, -168, -313, };
const TfArray<1, int> tensor_dimension4 = { 1, { 32 } };
const TfArray<32, float> quant4_scale = { 32, { 4.092254675924778e-05, 4.1755727579584345e-05, 3.9437032683053985e-05, 4.2816958739422262e-05, 3.9505051972810179e-05, 4.1831444832496345e-05, 4.1931078158086166e-05, 4.2360552470199764e-05, 4.2272436985513195e-05, 4.0886148781282827e-05, 4.239940972183831e-05, 4.3514173739822581e-05, 4.301123772165738e-05, 4.308669304009527e-05, 4.2405761632835492e-05, 4.0838796849129722e-05, 4.1194976802216843e-05, 4.1128325392492115e-05, 4.1549486923031509e-05, 4.1100654925685376e-05, 4.2116182157769799e-05, 4.2057909013237804e-05, 4.1769362724153325e-05, 4.1765510104596615e-05, 4.1884512029355392e-05, 4.1093524487223476e-05, 4.2242219933541492e-05, 4.3632509914459661e-05, 4.1684848838485777e-05, 4.0513608837500215e-05, 3.9395552448695526e-05, 4.2172283428953961e-05, } };
const TfArray<32, int> quant4_zero = { 32, { 0,0,0,0,0,0,0,0,0,0,0,0,0,0,0,0,0,0,0,0,0,0,0,0,0,0,0,0,0,0,0,0 } };
const TfLiteAffineQuantization quant4 = { (TfLiteFloatArray*)&quant4_scale, (TfLiteIntArray*)&quant4_zero, 0 };
const MODEL_SECTION(EI_MODEL_SECTION) ALIGN(16) int8_t tensor_data5[32*1*1*96] = { 
  /* [0][0][][] */ -45,-46,107,14,100,-20,-87,-102,70,-103,-107,2,62,8,-33,53,-51,-26,-66,-51,-66,-103,11,116,-119,7,84,-42,114,4,-31,-83,91,-67,-89,63,-106,-79,-89,35,70,-91,-95,109,58,-120,101,-20,20,-64,-38,104,-70,-46,-96,113,19,75,127,-114,-70,90,-46,52,-7,18,71,84,59,106,93,-113,108,-101,47,92,-103,20,-55,39,59,11,96,-3,-63,-42,-81,110,31,119,-11,-111,5,62,36,24, 
  /* [1][0][][] */ -44,45,-62,-10,-31,95,43,10,88,-100,-96,98,53,-24,12,77,100,-47,29,126,-41,-18,46,31,46,10,-39,118,-1,11,111,-62,49,106,-22,19,60,70,-5,-76,-49,16,-19,-87,-43,45,-21,-44,-25,-78,125,67,20,94,-77,-60,21,88,71,93,-51,104,-69,-76,-49,30,83,51,91,21,23,3,-114,103,-39,56,93,-50,-33,84,-73,99,-49,-119,38,127,-80,-56,89,91,104,16,97,85,14,4, 
  /* [2][0][][] */ 65,30,-73,91,-28,-48,93,89,-115,107,-47,117,87,-24,79,-127,-64,-35,32,47,-113,-24,108,14,-35,84,100,0,-81,74,99,106,-81,-14,-108,-118,-102,90,101,-37,-108,-89,8,-16,-95,119,-31,-92,113,44,85,-96,-59,58,29,11,-62,91,-76,8,-28,55,-47,67,87,47,41,93,-110,63,-1,-87,26,-89,25,22,-65,-37,-5,1,30,-85,-21,-44,-7,-112,-29,-44,85,109,-35,2,-31,-88,-59,-80, 
  /* [3][0][][] */ 60,14,51,-11,-73,37,-121,51,65,12,77,5,106,107,85,19,89,93,-56,28,127,-71,-50,-112,-10,-112,-65,118,51,-83,73,-5,-42,-38,-1,-6,-76,-10,54,47,-37,-80,-89,14,60,37,-43,-68,54,-78,51,10,107,42,74,-92,-111,-107,-101,-46,-80,41,-23,69,68,-34,-48,-22,-17,-62,18,113,30,-90,68,-36,44,99,108,-47,-74,-122,34,86,41,57,-28,-102,-67,57,12,-109,79,-90,-75,50, 
  /* [4][0][][] */ 41,122,13,59,-21,-39,24,27,78,81,5,50,39,-27,-19,-55,-39,-2,-82,30,127,-92,105,37,-6,-19,78,-47,-48,52,-85,-68,69,113,29,-114,-37,7,-105,44,-67,-52,-70,-80,27,122,44,74,11,-40,-6,-66,-79,62,-105,20,24,-100,42,27,22,-86,-28,-64,-36,53,16,-28,35,-111,-89,-74,-46,35,120,70,78,-15,6,-46,20,-49,-103,-27,13,87,106,16,-111,-64,61,40,19,104,-98,-6, 
  /* [5][0][][] */ 83,-95,88,93,41,-127,28,67,118,-117,9,-63,33,109,46,25,68,69,-67,108,43,62,29,-23,-112,-57,-7,-81,56,41,-1,-100,-27,5,-58,25,-103,-24,58,31,-105,-63,46,107,-26,13,23,-44,-109,101,28,21,49,27,33,-14,113,59,-45,-47,43,-58,49,-66,-26,107,-18,17,85,11,115,-59,-37,87,-17,-60,13,-39,24,95,117,25,35,113,-79,70,6,44,78,-92,122,96,-31,30,83,-75, 
  /* [6][0][][] */ 26,-40,113,76,-77,-58,7,65,-15,-74,8,-76,87,55,120,-118,50,15,1,101,-78,-115,106,66,-59,-78,-8,-57,-22,-109,53,-68,-86,-116,-45,-101,-11,39,-109,95,91,57,30,-15,-102,109,-88,-46,-77,21,-25,-55,59,-51,105,-22,21,8,-68,127,-94,13,66,-68,-51,77,101,-44,79,-5,-105,-5,55,-69,-90,-37,-74,-99,-58,-30,34,-22,44,-16,-70,-87,-39,-95,83,93,95,29,-34,-48,78,-27, 
  /* [7][0][][] */ 108,79,-27,-37,-63,107,-18,9,127,-2,-85,5,63,-78,34,84,37,18,-8,123,64,27,5,92,-58,93,49,67,-73,116,-18,23,14,21,75,97,-93,96,1,-40,85,-67,90,79,44,5,110,-99,39,-51,-98,-58,-15,97,3,30,102,-88,15,-47,17,-15,88,-106,-58,-54,78,31,-104,25,76,94,95,36,70,68,-53,61,-87,57,100,-33,-11,-74,96,44,-100,103,91,16,96,53,-68,-43,-1,-55, 
  /* [8][0][][] */ -1,44,-33,-78,64,13,-73,-9,20,35,55,101,15,-33,-72,-60,-62,104,-57,29,43,-13,93,116,-105,98,56,87,-58,32,-99,113,103,-31,59,6,127,15,-7,80,64,110,-100,-105,-3,-21,-17,119,16,-91,-52,8,-52,4,-33,-98,53,117,-82,111,123,53,54,114,-21,-38,-10,104,-71,63,44,11,87,80,20,33,-36,117,94,85,46,69,-100,-81,35,52,86,-29,48,-26,-72,107,-92,-93,-34,71, 
  /* [9][0][][] */ 16,4,115,49,94,-93,-38,-126,37,53,-14,59,-28,-85,-108,-27,25,17,-105,-73,-1,97,-114,-91,110,-9,-13,24,-14,-67,-74,119,60,7,24,-23,-83,11,-41,-32,66,-63,58,-93,99,25,-98,49,60,-11,-84,-50,74,-82,-55,105,85,-58,-18,-1,-96,112,80,-76,-90,22,103,58,-45,115,107,-96,10,78,-112,-100,-82,-125,-45,102,32,41,102,44,-49,-98,34,-20,97,29,-34,122,127,-2,58,-41, 
  /* [10][0][][] */ -71,93,101,-60,-9,96,107,37,49,21,33,-78,107,90,-41,22,-47,84,-103,-52,-8,31,67,-62,42,47,-107,-100,-44,89,-93,-93,80,96,127,74,-30,16,-23,23,-46,123,-104,-26,-101,-50,5,-48,-16,5,46,19,71,32,-75,-33,-113,-12,40,-36,7,76,119,46,125,-74,-85,-14,29,-16,-83,-56,96,75,-71,116,-6,72,76,33,86,0,62,101,-90,78,108,-14,45,19,6,-74,-68,-49,-39,-57, 
  /* [11][0][][] */ 113,13,-15,99,127,56,66,28,105,86,-72,121,-8,-83,24,-49,-41,-84,58,36,26,69,23,-91,-104,-93,-22,70,73,-11,37,-5,-87,-66,47,42,-64,69,-31,-43,-13,111,-58,19,-25,-44,-81,-89,84,100,110,57,-84,-90,30,23,-64,-53,-19,-71,-80,87,77,9,28,98,-58,33,82,70,-83,-70,38,98,-98,53,-50,29,-47,82,-103,-16,-72,-33,43,-63,14,-16,-94,-11,8,-83,-77,-33,-70,-40, 
  /* [12][0][][] */ 25,61,-57,-4,80,19,-34,28,-81,62,-20,10,-50,10,41,-81,-100,-38,-45,-86,18,-14,9,88,-70,-45,90,-103,85,6,-28,114,-89,-62,-52,18,-11,-79,-24,34,127,34,-111,-46,-26,-84,-40,108,-38,-105,-80,116,29,-5,-78,77,-3,-64,45,70,48,104,-9,47,102,31,-49,125,51,92,33,63,75,105,-22,-10,-42,26,-121,-97,-62,112,42,17,-38,26,45,104,-97,-112,86,37,112,0,20,68, 
  /* [13][0][][] */ 92,-50,111,105,94,98,77,74,84,-115,23,-21,100,80,77,-53,-106,-58,-65,40,78,-14,127,-39,-64,42,16,30,-75,-75,65,33,51,97,-8,45,-69,-16,37,77,-76,65,-42,23,-34,19,-14,-19,33,88,-29,-104,-84,39,92,-69,-42,38,-9,-72,-14,124,-62,21,-43,-54,-79,73,-24,-1,106,11,-77,49,-62,-28,-94,77,92,-48,63,-107,101,26,-74,-106,103,125,1,-40,-69,60,95,-50,77,4, 
  /* [14][0][][] */ -65,-84,98,79,85,-33,-11,-100,-64,-43,80,87,-18,-69,-77,-74,-43,-48,21,36,-31,45,10,69,-100,-65,-22,43,-103,-104,-78,41,115,-19,-21,14,107,127,46,-100,-11,-100,42,100,75,-103,73,-72,117,43,86,62,107,-3,-13,22,-45,19,60,106,-5,-70,-15,78,-80,-3,89,-97,-76,-79,-75,104,16,93,61,-61,66,-94,67,47,56,-25,-106,-35,-103,-78,-99,116,119,20,99,-45,68,108,-4,71, 
  /* [15][0][][] */ 31,-13,-17,71,106,-75,68,-93,72,0,-60,7,100,9,-101,-100,83,7,-99,36,60,10,87,120,95,63,48,109,14,66,79,-100,-4,6,-73,-12,-56,127,123,-78,28,127,-42,-11,19,-69,-31,-68,-13,-73,9,43,-88,-90,-53,-15,63,45,-35,124,-35,-76,3,112,-23,94,-60,15,-71,3,73,-76,22,-1,73,-98,11,57,120,93,-72,75,-103,-68,-110,-23,-101,52,100,85,-101,-47,70,109,-120,127, 
  /* [16][0][][] */ -82,-9,105,-48,38,102,-56,53,60,48,-109,81,1,-36,-39,-71,119,90,80,72,125,94,-40,56,-44,65,-59,59,-89,26,28,13,-94,82,72,70,-24,54,-40,-57,8,-55,73,93,73,97,94,-20,-57,-114,-1,104,-44,118,68,58,35,104,63,4,127,123,49,67,49,23,-31,85,60,112,-18,5,43,88,58,88,-19,111,-104,-19,20,-97,66,17,3,92,118,3,74,5,-22,123,60,-24,-69,20, 
  /* [17][0][][] */ 50,-118,25,75,-50,-103,-70,-109,35,-88,79,45,92,56,-126,45,29,46,104,109,-103,-21,7,-59,21,67,-86,20,102,-62,-24,77,-40,-25,25,1,-57,95,-98,-40,-82,-46,-19,-18,0,9,86,-118,92,108,-20,22,-26,71,102,-83,-121,79,-93,-118,25,-105,68,95,-93,-83,38,-107,-121,-13,103,21,7,-126,-74,61,112,-56,35,-67,4,-4,-82,-94,-120,69,73,-42,14,72,-105,-127,1,97,3,10, 
  /* [18][0][][] */ -83,94,99,-78,-15,-100,-108,-2,-14,85,-116,-54,-46,30,51,-59,14,-32,66,-33,93,-54,12,-87,36,-90,-26,102,22,25,12,38,36,-31,-117,-105,-42,28,-42,55,-30,8,-54,-18,-122,26,34,-9,17,-20,68,38,-118,-18,3,78,-32,26,-29,-120,75,101,7,30,-76,-127,-35,100,59,-88,-82,99,-107,-43,-98,-111,46,47,-11,-84,-66,4,-21,-61,100,-30,61,58,-115,-81,-54,97,100,-46,39,-23, 
  /* [19][0][][] */ 35,22,69,32,55,-78,94,84,86,-62,21,-16,-104,27,-64,54,69,-112,107,51,-30,73,-63,9,71,-84,24,-76,-96,-127,-56,45,74,-87,25,-6,1,-77,-64,-108,61,-121,-86,3,-92,26,77,-101,-24,38,-45,39,-41,6,7,-15,20,92,-9,-33,48,-63,93,60,-76,-9,-33,-5,-17,47,68,-59,-71,-127,-63,-88,-29,-118,7,100,52,-105,-34,76,-93,-13,0,-11,83,24,-10,59,-17,111,63,-53, 
  /* [20][0][][] */ 4,81,61,84,-84,103,16,48,5,13,-92,-1,-16,77,31,-58,-57,-43,-69,-39,13,-53,-80,-72,89,-77,-109,50,16,4,-24,111,91,39,-24,48,32,-39,-25,-114,-65,-22,-87,-106,-33,-52,-56,113,61,-115,-96,51,41,103,50,-7,86,63,101,98,101,-62,-76,-38,-20,-72,-56,26,-92,-83,-77,68,-71,-79,27,14,119,70,99,106,75,23,78,-29,71,127,-25,81,16,103,38,59,36,21,-14,10, 
  /* [21][0][][] */ 78,86,81,-94,102,-92,73,27,8,-69,-62,46,15,47,-40,-80,-102,-22,30,-4,116,-38,81,-76,66,-83,-24,84,21,14,-13,-27,16,20,-81,-106,120,105,-106,-26,-23,14,33,-4,-91,-76,-72,102,-31,-66,2,93,45,79,-100,32,-50,60,-41,127,64,-65,22,-9,89,36,-25,-62,-94,6,69,86,43,-11,81,76,-103,-19,72,115,22,94,40,-73,34,-86,74,-73,-95,87,117,-107,-59,-62,76,-22, 
  /* [22][0][][] */ 17,-62,-62,-85,93,-63,113,70,-82,72,-64,-100,127,-101,-102,-96,48,94,-110,-52,101,-61,41,38,83,0,-105,107,-47,-66,-79,-106,61,64,32,22,15,-9,-46,-105,-13,-23,7,106,65,-125,78,-25,-62,-93,6,-28,-55,-85,-44,44,-9,-18,-18,-35,122,-65,-64,-109,-65,28,-109,-57,126,114,-10,11,-56,10,71,-84,43,-42,78,98,119,-112,-71,-115,70,75,112,-31,-53,29,-73,70,5,18,-17,96, 
  /* [23][0][][] */ 48,-101,-2,66,89,-127,6,-95,58,-83,79,80,28,-100,29,-53,96,-27,-102,97,96,-71,96,-37,-28,-8,84,11,78,52,56,-38,-28,46,30,42,99,-15,-111,15,-121,-12,4,-114,-62,-101,100,16,77,-117,-101,-64,72,-66,-53,97,-78,-11,88,34,-110,-82,-43,-14,22,44,-117,-121,74,-9,117,-61,2,-45,-48,-101,34,-16,90,107,-56,-68,21,-102,81,-5,125,-33,-101,30,93,0,92,-49,-21,74, 
  /* [24][0][][] */ -93,-37,-93,-59,-84,-125,-69,-79,80,103,94,51,127,73,-27,-105,-80,52,25,-40,109,-67,-43,-29,63,-29,86,70,115,67,-11,-67,10,6,62,36,-40,-74,74,-10,-89,-90,109,17,29,-29,31,85,-96,-49,-15,25,83,71,61,-65,0,89,38,11,103,6,48,98,-88,103,-35,-82,-89,65,-44,-14,-26,52,107,112,74,-62,-92,-70,-67,-103,-59,-113,13,75,-1,-88,39,-95,17,-71,-32,33,-82,41, 
  /* [25][0][][] */ -75,-64,-81,1,103,-62,-97,60,47,-107,-41,28,85,7,-100,-29,-63,72,42,-105,72,97,-9,-52,8,-43,-94,38,89,-88,54,127,105,-100,56,84,107,-61,-22,-9,-70,95,-106,4,109,37,80,33,-98,104,-68,-3,46,-16,-54,20,-10,64,-111,70,123,54,58,57,7,86,-12,-10,-80,5,-20,-104,47,-118,72,21,69,84,18,19,54,65,-37,84,-82,-54,-94,-97,-25,-44,102,31,-108,-9,-8,-88, 
  /* [26][0][][] */ 44,-122,-28,-18,-102,-14,-16,-19,-113,-127,99,78,-84,-53,5,-21,103,24,-85,-72,7,65,92,9,45,56,7,39,8,-1,-98,-11,-34,-67,-104,-106,-71,78,-57,105,-106,95,52,25,-75,67,-46,94,-27,24,-12,93,5,-54,-12,-107,87,59,47,19,-4,-99,57,-25,107,-26,-62,51,-92,73,80,89,72,-101,-92,2,40,-111,-102,3,-34,67,77,-75,72,-6,-50,7,-87,106,3,11,-64,107,45,81, 
  /* [27][0][][] */ 28,24,-43,-80,-95,-50,-49,1,56,112,52,-85,-9,72,96,-12,80,2,76,-62,-73,28,-11,-5,-85,61,-86,14,79,44,-13,8,76,83,-69,-65,-71,-46,-91,101,-73,31,42,33,111,39,81,114,102,82,73,-58,-70,-64,12,-15,115,-6,-97,-57,-40,-41,-15,69,54,-27,-89,118,64,27,-94,24,76,-36,9,-67,62,-47,99,113,98,-8,127,-42,-53,-63,-14,41,-30,10,-16,-31,71,34,100,70, 
  /* [28][0][][] */ 105,12,101,59,-98,-49,-82,-61,-25,-92,75,84,-65,-70,18,116,108,127,-58,88,-14,38,-93,-60,-106,97,-69,-45,-58,-61,14,-3,-88,32,95,87,29,-93,-27,46,119,58,-81,66,-94,6,29,62,37,-48,-66,-22,-71,38,68,54,73,3,95,67,6,-28,-81,20,72,89,-7,97,-64,38,-89,-27,86,48,10,-84,-100,-55,-72,59,-60,-77,121,-17,77,-97,81,-73,-89,-61,-21,-51,-26,66,-86,-58, 
  /* [29][0][][] */ 72,46,50,-58,-94,30,-120,-2,92,3,-99,-98,103,-113,-54,-55,-103,99,29,-74,-85,-40,48,0,-43,15,-51,-37,-107,-16,116,1,47,9,-89,-59,-19,97,-18,92,68,103,-49,76,-5,103,-59,-34,26,-4,53,-103,66,-111,120,44,-94,52,-59,104,-127,93,-104,-55,-69,-67,46,87,91,-93,27,-81,106,70,54,18,111,-71,-39,25,-13,-72,-13,-77,58,111,38,72,-46,91,64,79,-86,18,-8,55, 
  /* [30][0][][] */ 25,-68,-67,34,-106,23,-68,-14,118,-20,-1,-46,-111,14,59,11,-8,37,96,-110,40,-108,-118,11,-118,23,-75,123,-15,-115,-98,2,-93,-78,-127,-62,16,-20,-5,27,95,-80,-15,104,107,-49,107,63,-74,74,17,-110,99,-55,-13,106,-88,-61,-86,-60,-111,-6,-77,-30,-116,-94,-101,92,-67,113,44,-38,-98,112,42,-92,-66,-76,-79,-65,28,23,-111,-23,-113,31,-115,114,-39,-122,79,54,-40,-7,8,-77, 
  /* [31][0][][] */ 100,-97,33,98,49,81,-43,-103,-34,-1,-82,-68,98,-123,-45,106,-53,-88,38,45,59,35,-35,104,40,-97,33,36,-74,-76,56,127,22,40,-94,-3,92,-35,-72,-106,79,-72,-32,28,9,-56,-42,20,86,32,89,-26,-118,-60,-63,25,-98,67,-1,126,-42,1,84,-76,66,119,-49,-72,73,-120,-122,6,-99,-46,-1,4,-61,-50,45,86,-79,-25,54,90,53,92,-97,12,13,-56,-89,-50,31,110,-6,-28, 
};
const TfArray<4, int> tensor_dimension5 = { 4, { 32,1,1,96 } };
const TfArray<32, float> quant5_scale = { 32, { 0.0017903021071106195, 0.0018267524428665638, 0.0017253130208700895, 0.00187317980453372, 0.0017282887129113078, 0.0018300650408491492, 0.0018344238633289933, 0.0018532127141952515, 0.0018493578536435962, 0.0017887097783386707, 0.0018549126107245684, 0.0019036820158362389, 0.0018816792871803045, 0.0018849803600460291, 0.0018551906105130911, 0.0017866381676867604, 0.0018022204749286175, 0.0017993045039474964, 0.001817729789763689, 0.0017980940174311399, 0.0018425219459459186, 0.0018399725668132305, 0.001827348954975605, 0.0018271805020049214, 0.001832386595197022, 0.0017977821407839656, 0.0018480358412489295, 0.0019088590051978827, 0.0018236517207697034, 0.0017724116332828999, 0.0017234982224181294, 0.001844976213760674, } };
const TfLiteAffineQuantization quant5 = { (TfLiteFloatArray*)&quant5_scale, (TfLiteIntArray*)&g0::quant4_zero, 0 };
const MODEL_SECTION(EI_MODEL_SECTION) ALIGN(16) int32_t tensor_data6[96] = { 1996, -2, 3752, 5829, 6477, -3847, 5144, -1598, -2584, -893, 5131, -3043, 5206, 7391, 2311, 2591, -793, -449, -2086, 7009, 2502, -993, 3631, -545, -1335, 4462, 1762, 1973, 5646, 2479, 6150, 1921, 1701, 7838, 7111, 4240, -520, 4648, 3907, -4859, -314, 1936, 18, 1979, -1592, 482, -1806, 1290, -9635, 2085, 1368, -4009, 8474, -946, 2663, 1753, 1107, 3164, -1175, -2402, 395, 2237, 607, 4930, 6907, 4214, 2983, 6219, 4272, -829, 3572, 7053, 3829, -1975, 6581, 8466, 801, -3836, 1050, 2017, 10935, 2906, -669, -3674, 1396, 865, 1607, -3546, 5969, -883, 4704, 1753, -27, -3759, -335, 1939, };
const TfArray<1, int> tensor_dimension6 = { 1, { 96 } };
const TfArray<96, float> quant6_scale = { 96, { 8.8276901806239039e-05, 0.00020047390717081726, 0.00015453413652721792, 0.0001267222105525434, 9.8676944617182016e-05, 0.00010783985635498539, 0.00011460616224212572, 0.00016350724035874009, 0.00014814722817391157, 0.00015703591634519398, 0.00012593578139785677, 0.00014598020061384887, 0.00011073695350205526, 8.2289756392128766e-05, 0.00012231362052261829, 0.00014999930863268673, 0.00017846529954113066, 0.00015144108328968287, 0.00014507384912576526, 9.0892361185979098e-05, 0.00017851109441835433, 0.00012573176354635507, 0.00010380296589573845, 0.00016188477457035333, 0.00018135606660507619, 0.00014165676839184016, 0.00015098969743121415, 0.00018664401432033628, 0.00012266231351532042, 0.00017616807599551976, 8.3732244092971087e-05, 0.00012258495553396642, 0.00016319236601702869, 8.2129248767159879e-05, 9.3373819254338741e-05, 0.00011857124627567828, 0.00012604855874087662, 0.00010327017662348226, 0.0001041197101585567, 0.00010161935642827302, 0.00015937117859721184, 0.0001216747477883473, 0.0001863900397438556, 0.00013214891077950597, 0.00013272442447487265, 0.00012124946806579828, 0.00015158747555688024, 0.0001242334401467815, 7.2688388172537088e-05, 0.00011860769154736772, 0.00017468452278990299, 0.00011782343062805012, 8.8329419668298215e-05, 0.0001596046204213053, 0.00012553705892059952, 0.00013081912766210735, 0.00014992506476119161, 0.00012673468154389411, 0.00015333012561313808, 0.00011754976731026545, 0.0001900996285257861, 0.0001256779651157558, 0.00016721517022233456, 0.00013355340342968702, 9.7316020401194692e-05, 0.00011582846491364762, 0.00013097219925839454, 0.0001131259705289267, 0.00015203692601062357, 0.00016082999354694039, 0.00013072666479274631, 0.00010116014891536906, 0.000129226318676956, 0.00011329188419040293, 0.00011174529936397448, 9.6266368927899748e-05, 0.00012336009240243584, 0.00015324914420489222, 0.0001199506368720904, 0.00010907807154580951, 8.0289901234209538e-05, 0.00010231623309664428, 0.0001542307436466217, 0.00011935320071643218, 0.00013740094436798245, 0.00012489131768234074, 0.00017499866953585297, 0.00011627258936641738, 0.00010929913696600124, 0.00011963064025621861, 0.00013083734665997326, 0.00013946263061370701, 0.00011737300519598648, 0.00011768932017730549, 0.00018942855240311474, 0.00014031933096703142, } };
const TfArray<96, int> quant6_zero = { 96, { 0,0,0,0,0,0,0,0,0,0,0,0,0,0,0,0,0,0,0,0,0,0,0,0,0,0,0,0,0,0,0,0,0,0,0,0,0,0,0,0,0,0,0,0,0,0,0,0,0,0,0,0,0,0,0,0,0,0,0,0,0,0,0,0,0,0,0,0,0,0,0,0,0,0,0,0,0,0,0,0,0,0,0,0,0,0,0,0,0,0,0,0,0,0,0,0 } };
const TfLiteAffineQuantization quant6 = { (TfLiteFloatArray*)&quant6_scale, (TfLiteIntArray*)&quant6_zero, 0 };
const MODEL_SECTION(EI_MODEL_SECTION) ALIGN(16) int8_t tensor_data7[96*1*1*16] = { 
  /* [0][0][][] */ -9,97,-82,35,49,-30,96,65,-59,2,34,-90,82,127,-58,21, 
  /* [1][0][][] */ -23,-4,-64,-21,-6,45,23,-127,35,-45,-26,-57,-10,-46,-50,4, 
  /* [2][0][][] */ -28,-30,38,73,20,40,-105,127,-28,5,78,-55,-21,-69,-49,71, 
  /* [3][0][][] */ 97,-88,72,-5,-3,-27,-39,127,-28,56,75,46,0,65,19,13, 
  /* [4][0][][] */ -45,-25,-4,46,-94,10,-25,-127,-5,-14,32,-10,32,46,108,116, 
  /* [5][0][][] */ 127,23,-25,-25,-85,24,32,76,15,-12,71,98,126,26,-99,8, 
  /* [6][0][][] */ 21,-35,-63,-52,-69,8,-3,-49,-49,-54,-31,26,84,51,127,-10, 
  /* [7][0][][] */ -53,37,-32,-75,-2,-60,-79,19,-103,58,-67,-68,-127,-33,20,93, 
  /* [8][0][][] */ 48,38,74,5,51,20,73,5,65,-29,36,8,-127,-30,-75,9, 
  /* [9][0][][] */ -34,58,27,-42,-30,-15,28,-10,-29,46,-37,11,45,127,26,30, 
  /* [10][0][][] */ 67,54,-36,44,-33,-15,53,-46,-77,-33,-53,-93,-127,-70,3,88, 
  /* [11][0][][] */ 53,7,68,8,-13,-30,11,117,-97,27,-33,2,-15,-3,70,127, 
  /* [12][0][][] */ -54,-27,13,-2,28,-5,127,37,-54,19,-3,-8,-14,74,-50,95, 
  /* [13][0][][] */ 17,28,19,61,127,49,108,97,-31,93,-95,-75,34,82,-109,-29, 
  /* [14][0][][] */ -109,127,-3,-8,2,13,56,8,-40,36,123,-14,-84,32,-35,52, 
  /* [15][0][][] */ -9,-14,-127,-43,73,-45,-88,-32,-26,-17,-12,-66,-3,-75,-50,51, 
  /* [16][0][][] */ 109,-19,11,-13,28,-33,45,-22,-40,8,127,54,46,2,-39,20, 
  /* [17][0][][] */ 7,11,-21,-105,-17,-69,127,-127,-5,-27,-53,40,34,71,-1,51, 
  /* [18][0][][] */ 31,124,-17,-48,63,-78,-26,-58,-40,127,-20,-6,-26,60,-11,-23, 
  /* [19][0][][] */ -73,-115,127,-94,37,-109,36,-37,40,36,78,104,18,-17,61,-39, 
  /* [20][0][][] */ -20,83,60,2,6,-2,25,-26,55,-11,88,-21,-127,-29,-75,-12, 
  /* [21][0][][] */ -60,42,17,20,61,35,60,55,-127,60,-34,16,-18,24,-53,-20, 
  /* [22][0][][] */ 12,-89,55,12,18,-126,127,4,13,-53,-48,-73,39,-95,-65,-62, 
  /* [23][0][][] */ -62,-103,49,63,30,-23,28,-50,23,-37,78,7,5,68,73,127, 
  /* [24][0][][] */ -1,-5,22,79,48,16,-52,-127,66,14,-39,14,4,2,-20,-22, 
  /* [25][0][][] */ -17,34,25,-55,-28,-4,17,-37,-34,60,-49,-5,36,127,17,5, 
  /* [26][0][][] */ -63,83,3,17,28,-85,-2,-32,13,21,16,76,10,4,-85,127, 
  /* [27][0][][] */ -24,-127,-42,5,-56,86,6,-63,19,-36,53,-25,25,-50,-103,-22, 
  /* [28][0][][] */ -30,7,35,85,30,16,-45,-127,-119,49,109,-18,79,16,-39,-23, 
  /* [29][0][][] */ -127,102,-19,-31,-22,26,-117,-78,-37,-37,-8,-4,4,-64,-112,55, 
  /* [30][0][][] */ 60,82,-56,79,-112,-93,-80,-14,-42,-9,7,-120,127,39,-9,91, 
  /* [31][0][][] */ 127,31,-68,-31,-61,24,96,37,-55,-13,66,46,43,25,-22,6, 
  /* [32][0][][] */ -30,-24,127,5,-21,76,76,21,-16,-13,-4,19,13,74,72,48, 
  /* [33][0][][] */ -8,21,-57,-55,-27,29,127,29,-8,-16,25,-57,94,114,-58,56, 
  /* [34][0][][] */ -109,-33,111,17,33,-64,119,-17,-127,36,32,-41,45,56,-64,-41, 
  /* [35][0][][] */ -7,16,-44,13,-73,126,-29,-18,-18,127,-4,94,-73,65,16,26, 
  /* [36][0][][] */ -15,-79,127,-49,-51,20,-38,-10,14,25,-52,83,-1,-87,-40,47, 
  /* [37][0][][] */ 82,-16,77,-33,127,-80,-45,28,-58,126,-78,0,-103,-53,110,-18, 
  /* [38][0][][] */ 50,41,9,-97,-2,-49,-101,50,-78,53,-108,-59,-75,-127,-101,58, 
  /* [39][0][][] */ -85,16,-55,-36,-78,-87,78,9,-127,-39,16,89,30,-7,-9,49, 
  /* [40][0][][] */ 127,31,13,-95,-78,19,21,-39,-42,-26,-45,-84,10,54,34,45, 
  /* [41][0][][] */ 89,-86,-57,-48,-1,-8,-56,-26,66,-20,-2,-56,127,-79,52,-36, 
  /* [42][0][][] */ -16,-89,-39,127,0,-100,-107,19,2,7,9,58,-85,76,-66,-4, 
  /* [43][0][][] */ -92,-43,-42,-126,-62,-1,1,80,36,-127,-33,40,-18,-48,-36,99, 
  /* [44][0][][] */ -51,39,49,-53,-32,-34,43,126,120,-95,80,125,127,47,-37,6, 
  /* [45][0][][] */ 37,85,-88,98,127,-90,-45,-64,109,-70,79,-71,-24,15,-76,71, 
  /* [46][0][][] */ -17,-35,5,-8,101,-19,29,24,-14,127,-24,-126,38,73,-52,72, 
  /* [47][0][][] */ 76,-47,-28,-12,78,-14,-37,-57,-7,127,-32,38,-11,-110,-87,10, 
  /* [48][0][][] */ 12,27,-15,-127,-5,-51,117,-123,10,3,-38,49,52,65,7,39, 
  /* [49][0][][] */ -20,127,-68,35,44,-56,64,53,-32,23,44,-81,-23,77,114,-89, 
  /* [50][0][][] */ 14,42,-23,3,-127,2,-67,-55,53,67,31,28,-35,-37,3,35, 
  /* [51][0][][] */ 127,-44,-46,-14,-42,92,-91,-46,51,-22,-45,67,-36,-71,-2,36, 
  /* [52][0][][] */ -18,-57,35,65,-37,-94,-127,-18,-38,-55,-40,-73,15,-68,14,74, 
  /* [53][0][][] */ 24,98,57,-127,13,114,95,-25,-6,-28,-13,-45,82,-124,5,54, 
  /* [54][0][][] */ 35,126,5,-21,1,-91,-111,51,4,-20,-42,127,84,93,22,58, 
  /* [55][0][][] */ -36,-10,46,26,48,-29,100,91,-83,-11,22,6,127,53,-1,-2, 
  /* [56][0][][] */ 127,22,11,25,-49,106,-56,-72,-27,46,-77,7,-55,105,-6,40, 
  /* [57][0][][] */ -47,-37,-44,-36,-70,-95,64,-23,-127,-26,54,56,16,35,-6,45, 
  /* [58][0][][] */ 52,-52,57,24,9,-65,-22,7,32,-14,-127,-32,29,-31,-31,49, 
  /* [59][0][][] */ 73,9,-127,92,14,41,94,-34,-70,-54,27,-106,-124,-66,27,110, 
  /* [60][0][][] */ -6,25,-6,20,-12,-22,-18,7,-34,-69,55,116,-49,-127,-39,-10, 
  /* [61][0][][] */ -40,13,92,-103,-81,54,11,127,-25,-105,50,78,88,-9,7,115, 
  /* [62][0][][] */ 73,39,-7,-127,-11,3,8,-45,-2,31,-40,44,20,-25,-89,-76, 
  /* [63][0][][] */ 0,-28,1,-6,-61,-70,-57,6,-68,-10,-37,-23,127,1,55,-16, 
  /* [64][0][][] */ 35,8,-20,56,-110,-37,-25,-83,59,127,37,-8,39,-49,-41,107, 
  /* [65][0][][] */ -33,4,-13,-18,-83,73,30,-27,48,-120,93,-61,68,60,-127,60, 
  /* [66][0][][] */ -124,106,-112,-87,48,-34,-127,-74,-101,126,108,-6,-116,-53,55,72, 
  /* [67][0][][] */ 6,-30,-127,-110,64,74,6,-24,-32,-3,53,-20,32,43,22,52, 
  /* [68][0][][] */ 54,27,-7,-44,-71,34,13,42,-68,66,127,-10,-10,-38,-113,-7, 
  /* [69][0][][] */ 71,-108,63,-51,15,-113,-25,127,-5,61,81,87,-28,72,-32,-6, 
  /* [70][0][][] */ 51,13,127,33,91,-23,123,19,24,21,-59,44,-71,68,-81,38, 
  /* [71][0][][] */ 4,26,101,-76,-127,-84,18,4,-21,-12,18,-108,-82,-2,11,31, 
  /* [72][0][][] */ -67,-102,29,-123,78,-17,16,38,-62,16,-127,-14,51,110,-64,113, 
  /* [73][0][][] */ 18,14,59,-8,127,-94,-46,2,-35,96,-98,40,-96,-63,121,-22, 
  /* [74][0][][] */ -112,-6,-117,-68,67,-43,-31,17,-78,1,-127,-29,-43,-66,-46,76, 
  /* [75][0][][] */ 90,-30,49,-45,26,6,-127,-31,-1,-103,66,2,-2,-18,-9,-13, 
  /* [76][0][][] */ 9,-48,-47,116,39,99,95,-65,88,-127,78,110,48,-81,-63,50, 
  /* [77][0][][] */ -44,-41,127,-21,26,-33,-22,-108,14,16,31,89,39,43,11,6, 
  /* [78][0][][] */ -57,-1,20,-36,-6,-56,42,-14,25,-15,15,-87,-109,-77,-127,-46, 
  /* [79][0][][] */ -113,-86,-12,24,127,29,-10,14,29,25,-24,58,-49,-83,-64,-11, 
  /* [80][0][][] */ -7,-127,58,117,-38,-38,-97,72,-17,26,67,12,-89,-17,-32,65, 
  /* [81][0][][] */ 108,60,-14,83,0,37,26,127,23,14,109,55,108,28,61,-21, 
  /* [82][0][][] */ -50,7,11,-30,30,-127,-127,-84,0,79,-42,-37,-25,110,-71,-28, 
  /* [83][0][][] */ 108,-16,80,-28,-40,-12,-127,-4,27,-114,14,-56,-14,-8,17,-22, 
  /* [84][0][][] */ 20,-67,-105,33,126,47,37,42,-127,25,-106,-25,56,-29,-76,17, 
  /* [85][0][][] */ 12,87,40,-53,99,6,45,-123,127,-42,38,-19,94,-84,2,2, 
  /* [86][0][][] */ 110,-32,127,43,-2,-54,78,37,-66,-48,-89,-41,31,20,-68,7, 
  /* [87][0][][] */ 0,8,14,-81,75,-32,-50,11,38,-37,77,-39,-80,-127,0,24, 
  /* [88][0][][] */ -63,-36,36,-2,27,27,-62,-53,-1,11,-74,-127,-46,-43,-15,-13, 
  /* [89][0][][] */ -68,9,15,-62,30,4,-127,17,87,27,-62,-14,-8,-74,-37,-16, 
  /* [90][0][][] */ -15,-20,-25,-78,127,18,-52,33,46,53,23,-11,27,12,-69,-22, 
  /* [91][0][][] */ -54,-70,29,45,-54,-16,1,73,-49,-65,23,-39,-11,54,13,127, 
  /* [92][0][][] */ -23,77,0,-16,-22,61,-100,44,-38,-11,67,1,-34,127,54,25, 
  /* [93][0][][] */ -6,77,-58,-70,70,89,-88,11,67,65,83,58,-127,31,-38,84, 
  /* [94][0][][] */ 30,68,91,12,-127,-37,6,-7,16,-19,31,-19,-50,-18,20,-21, 
  /* [95][0][][] */ -13,23,57,-7,127,-22,-87,70,18,12,-94,103,-17,1,93,-49, 
};
const TfArray<4, int> tensor_dimension7 = { 4, { 96,1,1,16 } };
const TfArray<96, float> quant7_scale = { 96, { 0.0012091408716514707, 0.0027459186967462301, 0.0021166752558201551, 0.0017357314936816692, 0.0013515916652977467, 0.0014770972775295377, 0.0015697763301432133, 0.0022395811975002289, 0.0020291928667575121, 0.0021509425714612007, 0.0017249597003683448, 0.0019995109178125858, 0.0015167793026193976, 0.0011271340772509575, 0.0016753465170040727, 0.0020545611623674631, 0.0024444637820124626, 0.002074309391900897, 0.0019870963878929615, 0.0012449651258066297, 0.0024450910277664661, 0.0017221651505678892, 0.0014218034921213984, 0.0022173579782247543, 0.0024840589612722397, 0.0019402923062443733, 0.0020681265741586685, 0.0025564886163920164, 0.0016801225719973445, 0.0024129983503371477, 0.0011468920856714249, 0.0016790629597380757, 0.0022352682426571846, 0.0011249355738982558, 0.0012789539759978652, 0.0016240866389125586, 0.0017265044152736664, 0.0014145057648420334, 0.0014261419419199228, 0.001391894300468266, 0.0021829288452863693, 0.0016665956936776638, 0.0025530098937451839, 0.0018100617453455925, 0.0018179446924477816, 0.0016607706202194095, 0.0020763145294040442, 0.0017016424098983407, 0.00099562283139675856, 0.0016245858278125525, 0.0023926778230816126, 0.0016138437204062939, 0.0012098602019250393, 0.0021861263085156679, 0.0017194983083754778, 0.0017918476369231939, 0.002053544158115983, 0.0017359023913741112, 0.0021001838613301516, 0.0016100952634587884, 0.0026038207579404116, 0.0017214283579960465, 0.0022903692442923784, 0.0018292992608621716, 0.0013329508947208524, 0.0015865183668211102, 0.0017939441604539752, 0.0015495019033551216, 0.0020824705716222525, 0.0022029106039553881, 0.0017905810382217169, 0.0013856044970452785, 0.0017700307071208954, 0.0015517744468525052, 0.0015305906999856234, 0.0013185737188905478, 0.0016896800370886922, 0.0020990746561437845, 0.0016429803799837828, 0.0014940573601052165, 0.0010997417848557234, 0.0014014395419508219, 0.0021125196944922209, 0.001634797197766602, 0.0018819996621459723, 0.0017106535378843546, 0.0023969807662069798, 0.0015926016494631767, 0.0014970853226259351, 0.0016385973431169987, 0.0017920971149578691, 0.0019102388760074973, 0.0016076741740107536, 0.0016120068030431867, 0.0025946288369596004, 0.0019219731912016869, } };
const TfLiteAffineQuantization quant7 = { (TfLiteFloatArray*)&quant7_scale, (TfLiteIntArray*)&g0::quant6_zero, 0 };
const MODEL_SECTION(EI_MODEL_SECTION) ALIGN(16) int32_t tensor_data8[16] = { 10532, 14975, -3587, 2202, -1235, 7651, 420, 3313, 15938, -5396, -10011, 9327, -16486, 10686, 4301, 6687, };
const TfArray<1, int> tensor_dimension8 = { 1, { 16 } };
const TfArray<16, float> quant8_scale = { 16, { 4.8607045755488798e-05, 6.971494440222159e-05, 5.5287408031290397e-05, 6.4751977333799005e-05, 6.2837083532940596e-05, 7.2978145908564329e-05, 4.8608129873173311e-05, 5.3604780987370759e-05, 0.00010332258534617722, 7.5716263381764293e-05, 5.3607207519235089e-05, 5.2117738960077986e-05, 6.7776170908473432e-05, 5.969392805127427e-05, 8.5770836449228227e-05, 5.6772154493955895e-05, } };
const TfArray<16, int> quant8_zero = { 16, { 0,0,0,0,0,0,0,0,0,0,0,0,0,0,0,0 } };
const TfLiteAffineQuantization quant8 = { (TfLiteFloatArray*)&quant8_scale, (TfLiteIntArray*)&quant8_zero, 0 };
const MODEL_SECTION(EI_MODEL_SECTION) ALIGN(16) int8_t tensor_data9[16*1*1*96] = { 
  /* [0][0][][] */ -116,37,68,-24,-79,-5,-66,-4,-57,10,-18,-35,31,39,46,-39,17,4,102,8,4,-55,127,68,47,24,9,35,-67,-118,-95,6,-50,-45,25,15,9,21,-5,29,-13,1,-91,1,-66,-22,0,96,-17,19,-46,-15,-5,6,28,-51,-107,7,-17,85,54,27,2,4,-29,-60,-43,21,-54,-73,7,-14,12,0,-74,-51,-44,14,-37,11,-63,77,82,-79,15,53,14,58,29,-24,-9,-22,-37,-36,-61,17, 
  /* [1][0][][] */ 43,20,33,-57,-70,-21,-16,8,-13,30,58,-58,9,-15,-66,-33,-5,3,-66,27,-14,-84,15,56,-5,-65,-4,-46,67,-107,119,-78,52,20,-20,58,41,77,-18,-45,37,13,-6,-17,3,58,-127,-46,-52,-50,-11,-21,35,-46,-41,52,16,-1,-26,22,33,49,-4,-98,-17,-11,-68,-1,5,-20,-91,-5,-39,-27,11,-82,2,19,28,-73,-20,-23,-86,-36,40,-34,-28,13,-73,-16,-55,48,24,58,-61,59, 
  /* [2][0][][] */ 79,-43,14,30,24,-74,69,8,-15,-17,-15,-6,-73,-23,11,-41,-94,-46,-45,41,7,-53,-46,24,-3,-74,6,-27,-33,43,-64,122,-48,127,-27,20,-18,-21,-11,-11,-102,85,74,22,-59,12,-26,-19,32,2,-39,-60,59,-24,-19,63,35,-4,41,-11,4,52,-36,4,72,14,1,-7,26,55,-43,-8,42,51,73,46,38,-68,70,48,82,-21,-42,28,-64,28,19,78,12,15,-23,32,-46,55,-11,30, 
  /* [3][0][][] */ 3,-5,-17,4,7,-6,11,-61,-18,59,33,52,31,-14,-48,44,1,-30,32,15,9,127,36,-40,13,21,-16,8,62,-32,62,-16,-23,34,-33,-22,25,51,30,4,-68,-31,-41,22,-34,31,28,2,-14,-43,-2,-21,42,-77,-32,-41,16,86,-26,3,-10,-15,-44,6,28,47,-40,-5,-22,-5,7,-64,-26,-43,36,-15,8,-2,-36,-25,-25,-3,-49,7,-7,-33,34,-22,2,16,24,-14,49,28,-40,61, 
  /* [4][0][][] */ 33,12,-38,16,27,24,-50,8,-27,78,92,-15,-14,0,6,-47,9,-9,-28,49,19,-52,57,90,-72,-4,-127,18,-45,-63,8,11,-61,-46,22,57,17,35,24,24,-31,-42,48,-25,-8,9,-31,55,-41,53,16,20,42,-10,-77,17,50,-19,14,-8,47,-6,25,13,-49,20,-37,12,-53,30,-46,50,45,-65,-40,-50,30,-55,-5,8,-40,90,-74,1,-24,23,31,-62,59,4,27,5,-59,-26,41,34, 
  /* [5][0][][] */ -69,37,46,-12,49,-24,53,-40,-9,35,-2,-26,34,-19,-26,-41,-4,-38,50,26,-114,-17,-77,50,-44,-5,41,7,43,-77,-9,41,57,110,-10,40,-9,23,41,-17,-26,89,81,-24,-5,60,41,-7,0,17,-26,26,9,-40,25,-97,39,-58,-57,-62,66,95,-46,-19,71,-38,-82,-60,-61,-15,-57,-5,-22,7,-29,-45,15,-46,-38,-21,127,-28,20,-82,-86,37,27,-19,-49,42,28,-10,-18,30,8,93, 
  /* [6][0][][] */ 44,-17,-100,40,-40,-116,116,101,-69,71,-23,77,-126,-86,70,58,-4,-57,-10,-1,-14,-22,-66,-72,-59,43,83,32,39,31,96,-59,25,21,12,-80,11,4,38,76,-2,26,-69,-32,8,-62,-90,23,35,-127,-30,78,49,8,-20,-70,77,50,6,-9,-127,63,-105,0,38,10,7,56,45,27,-7,-59,-46,31,113,42,78,-19,51,-78,-14,-61,-77,66,10,-72,53,24,-50,63,37,51,-32,21,-32,121, 
  /* [7][0][][] */ 28,86,-41,-56,-31,-9,44,8,-59,37,-56,-64,-42,13,16,-12,-52,-43,-31,62,-11,127,14,33,-6,3,29,32,54,46,80,-26,69,37,-26,8,6,-7,1,31,-68,0,5,-61,19,-44,77,-25,46,-75,-87,-28,-47,9,2,-10,29,22,-109,11,-11,119,17,-26,-17,-6,-41,9,-35,-23,-111,37,19,77,-32,46,-52,61,13,-74,-23,-50,64,-85,49,-20,0,6,-5,72,-92,55,58,-29,-46,17, 
  /* [8][0][][] */ -5,80,-39,35,-30,-23,-85,23,-89,-30,4,5,-36,33,29,83,1,-41,2,10,35,0,8,-12,-33,75,-4,28,-15,-18,-39,-31,-23,-51,-25,-62,-39,27,43,2,3,-42,31,7,-40,-36,11,-11,-22,-14,49,69,-6,-15,-64,92,-31,24,1,-33,-36,3,15,54,-35,-55,-37,-5,-39,8,3,4,-14,-47,-117,-20,-46,27,-64,-38,-30,5,-36,-32,1,1,14,26,13,59,-58,-8,-80,-127,18,-50, 
  /* [9][0][][] */ -10,20,-66,39,-30,-34,62,52,-7,48,-18,91,-24,-20,21,127,16,13,70,17,20,16,36,-85,-28,-1,24,-7,9,-12,43,46,-27,-1,2,-107,28,-19,-24,-18,-12,16,41,-22,-14,2,19,18,38,83,27,-6,-57,-71,-1,-1,2,-11,69,-15,-55,50,-52,-23,75,-6,-29,11,-67,22,33,36,-5,78,-25,-26,-33,20,-41,-11,53,-26,63,-2,29,-11,-15,-38,-47,19,2,-4,61,28,-46,2, 
  /* [10][0][][] */ 71,0,-48,-2,-33,-27,79,-4,19,-23,-25,-10,-90,-23,8,-9,-79,-31,19,19,39,40,28,2,-41,89,43,-8,-56,-79,-36,-9,73,-33,43,18,73,-83,81,127,20,-58,1,1,-24,-95,-3,60,34,92,-74,-47,-22,32,13,52,25,-62,73,57,-17,46,-71,-17,-1,-65,26,53,27,-26,-15,49,124,42,31,-85,31,-46,52,-6,-53,32,37,19,-40,-3,13,49,-37,-14,24,61,58,72,-36,5, 
  /* [11][0][][] */ -61,-41,45,-65,12,-16,-24,-50,49,-44,-3,-9,-18,-4,13,10,-69,1,63,10,-62,22,-77,-86,17,12,-46,42,31,-62,34,-31,17,-1,15,-26,-76,15,-124,18,-78,74,-57,53,21,7,-2,-44,24,-44,-65,-56,22,27,84,-61,-28,-67,13,-52,-33,-50,-29,-127,15,-78,72,75,124,14,76,-24,-41,-7,72,-36,104,43,31,55,27,-9,-24,88,82,8,-4,-14,-81,-72,-18,31,63,46,63,79, 
  /* [12][0][][] */ 46,-19,2,-46,32,111,-16,30,48,67,5,54,15,46,16,7,-60,49,21,56,127,-5,69,-67,36,27,-72,-75,-24,88,8,11,28,-13,12,-31,53,-6,-39,-32,21,-21,40,52,-22,36,2,-5,-60,34,7,29,-32,-28,9,22,-37,66,15,58,34,-100,19,-102,-7,94,-20,-37,0,-49,59,19,-5,15,-15,44,-18,48,-79,-9,-16,36,125,14,-5,82,-30,-77,81,7,-79,57,70,8,-25,-93, 
  /* [13][0][][] */ -10,37,-13,-48,-37,-8,10,-40,17,-30,-37,-79,56,-112,-38,-69,-18,-30,-76,-16,-99,-32,18,100,-26,8,115,9,18,-33,56,50,7,4,-125,127,-26,-50,22,-58,115,17,-9,20,-8,-92,62,-28,83,-3,-40,32,21,0,-1,76,69,-48,-41,-3,50,41,2,-85,3,30,-34,30,-62,-43,-87,9,-61,25,-37,-91,-108,27,34,87,-14,65,40,-96,60,50,39,-8,-12,-21,-15,26,-56,15,-27,1, 
  /* [14][0][][] */ -7,26,-70,-33,77,85,-88,-13,32,-40,77,-9,17,-29,-36,-64,-65,20,35,127,12,-22,0,11,6,45,-28,68,7,-2,-21,9,58,-7,-38,10,-13,55,64,6,62,-6,27,-2,-14,-46,61,-33,27,-3,-8,-19,36,19,-38,31,13,57,-86,-5,-12,-72,-37,-100,4,-42,-55,-2,-74,50,-21,32,5,-32,-28,-40,30,-17,-56,-26,31,10,2,-15,-8,49,-15,-24,-30,64,62,15,5,-45,-50,-61, 
  /* [15][0][][] */ -78,-43,43,-62,18,-24,-33,-93,-5,20,-9,72,-7,-25,40,97,-121,-17,24,-74,27,-34,-10,-88,55,-12,61,-52,-68,-108,-73,43,-42,70,93,-102,-7,-35,24,-26,-26,5,29,-25,5,2,74,115,-46,-6,27,-43,-49,64,22,-52,-100,-8,111,18,-36,19,-104,31,-63,-14,17,25,62,-79,90,-27,67,-33,-29,-50,21,34,57,11,-18,87,60,30,5,-13,-127,18,-3,-62,-95,35,52,-28,-23,71, 
};
const TfArray<4, int> tensor_dimension9 = { 4, { 16,1,1,96 } };
const TfArray<16, float> quant9_scale = { 16, { 0.0020657994318753481, 0.0029628851916640997, 0.0023497147485613823, 0.0027519590221345425, 0.0026705760974436998, 0.0031015712302178144, 0.0020658455323427916, 0.0022782031446695328, 0.0043912096880376339, 0.0032179411500692368, 0.0022783062886446714, 0.0022150038275867701, 0.0028804871253669262, 0.0025369918439537287, 0.0036452603526413441, 0.002412816509604454, } };
const TfLiteAffineQuantization quant9 = { (TfLiteFloatArray*)&quant9_scale, (TfLiteIntArray*)&g0::quant8_zero, 0 };
const MODEL_SECTION(EI_MODEL_SECTION) ALIGN(16) int32_t tensor_data10[96] = { -331, -1346, -3651, -5392, -712, 3764, 755, -1239, -1172, -1927, 10820, -2012, 360, 11872, 8434, -5226, 16737, 2482, -5786, -318, 47, -1583, 1187, -2560, 578, -4322, -1321, -5052, -61, -10109, 401, 728, 13203, 720, -1546, -343, -605, -1951, -739, 7745, -447, -81, 1572, -7727, 13627, 14318, 412, 17662, -1584, 16232, 16475, -4622, -854, -446, 171, 13017, -1264, 260, 18479, 8514, 9506, 13004, 8139, -8716, 1290, 2143, -2798, 3376, -3611, -2520, 2365, 2565, 13811, -576, -1357, 13975, -430, -703, 10509, -1629, 78, 23816, -496, 2823, 23787, 1475, -5248, -3648, 1203, -6289, 13889, 239, 75, -441, -6812, -3989, };
const TfArray<96, float> quant10_scale = { 96, { 0.00020265407511033118, 0.00015287799760699272, 0.00012711544695775956, 0.00013376367860473692, 0.00021287922572810203, 0.00025045411894097924, 0.00024090416263788939, 0.00018891382205765694, 0.00019358137797098607, 0.00013143493561074138, 0.00010148997534997761, 0.00033093098318204284, 0.00019903233624063432, 0.00010597768414299935, 0.00014074145292397588, 0.00013396867143455893, 0.00010250719788018614, 0.00022366746270563453, 0.00013957603368908167, 0.00010500067583052441, 0.00014989345800131559, 0.00025546384858898818, 0.00017510006728116423, 0.00018737096979748458, 0.00052984029753133655, 0.0001804291969165206, 0.00021561529138125479, 0.00013132940512150526, 0.00017825757095124573, 8.8390697783324867e-05, 0.00025497208116576076, 0.00020303271594457328, 0.00014055208885110915, 0.00016582899843342602, 0.00022958718182053417, 0.00032313185511156917, 0.00016339680587407202, 0.00026790730771608651, 0.00027983472682535648, 9.2088281235191971e-05, 0.00017463602125644684, 0.00021566687792073935, 0.00020662839233409613, 9.0169152827002108e-05, 9.4724920927546918e-05, 9.8588447144720703e-05, 0.00017669863882474601, 9.2801325081381947e-05, 0.00016432066331617534, 7.4470612162258476e-05, 0.00010124847176484764, 0.00011329498374834657, 0.00012627261457964778, 0.00013408370432443917, 0.00017909218149725348, 0.00014109609765000641, 0.00016212541959248483, 0.0001751227246131748, 0.00011520063708303496, 0.0001075766485882923, 0.00014463138359133154, 0.0001810270914575085, 0.00013623795530293137, 0.00011286177323199809, 0.00013177283108234406, 0.00020822753140237182, 0.00023308326490223408, 0.00015885310131125152, 0.00017796215252019465, 0.00018181282212026417, 0.00022329938656184822, 0.00012291723396629095, 9.200199565384537e-05, 0.00019042726489715278, 0.00025214924244210124, 0.00010552175081102178, 0.00012855528621003032, 0.0001814044953789562, 0.0001420024927938357, 0.00018932354578282684, 0.00021618697792291641, 7.8508572187274694e-05, 0.00018438065308146179, 0.00015701162919867784, 6.2540959334000945e-05, 0.000161231160745956, 0.00012132207484683022, 0.00017362933431286365, 0.00016874859284143895, 0.00017800560453906655, 9.5539799076505005e-05, 0.00034611407318152487, 0.00018878746777772903, 0.00025085729430429637, 0.00011029654706362635, 0.00025411299429833889, } };
const TfLiteAffineQuantization quant10 = { (TfLiteFloatArray*)&quant10_scale, (TfLiteIntArray*)&g0::quant6_zero, 0 };
const MODEL_SECTION(EI_MODEL_SECTION) ALIGN(16) int8_t tensor_data11[1*3*3*96] = { 
  /* [0][0][][] */ 29,127,5,15,-31,-2,38,50,69,-78,-82,33,-20,-1,35,-36,-75,13,22,29,34,69,65,96,12,-11,-50,-1,-17,19,17,-24,-51,5,-28,109,2,56,-2,5,29,-39,-2,38,-86,-52,8,-25,-16,-93,-32,-4,17,59,-20,-10,-74,-70,-52,-127,-127,2,-84,6,-35,36,43,-19,-25,40,34,-7,-22,11,42,-7,2,-30,-68,28,8,-98,51,-39,-78,-51,-17,20,-123,9,-66,36,64,-5,70,3, -36,-28,-11,76,-6,82,-32,2,73,26,-127,66,-37,-64,-74,127,-96,55,49,84,127,19,105,127,23,10,24,47,-2,127,-17,-127,84,70,9,54,78,116,-31,-127,127,-13,91,127,-45,-83,127,-76,-6,-127,-106,-37,6,127,-28,-127,8,31,-118,-80,-49,-127,-38,83,-41,76,104,-34,0,127,127,0,-73,31,-32,-104,24,-45,-28,127,-2,-86,127,-78,-115,-48,110,62,104,91,-83,0,127,-27,127,38, 21,-101,-2,4,-20,-17,-12,52,33,70,-61,18,-15,55,13,-63,-31,10,0,20,40,52,49,93,13,-30,27,43,4,23,-16,-62,-53,-84,-29,74,3,0,11,20,-5,29,-20,49,-33,-23,-3,3,25,-68,30,12,-1,-11,12,-8,54,-85,-19,-68,-96,23,-69,-2,43,7,-33,-12,-21,-12,5,1,-11,-33,-4,13,11,-12,-66,5,7,-119,29,-14,-8,-39,0,-16,-91,-7,-12,29,18,36,14,-10, 
  /* [0][1][][] */ 94,2,72,111,7,-52,127,39,-25,-127,-98,127,-6,-126,-59,27,-77,-48,77,30,-115,6,-127,-64,-12,46,-127,127,-80,85,127,66,23,58,12,127,-127,79,-24,-66,56,-127,27,76,-127,-72,0,-125,-107,-108,-113,10,127,-55,78,-19,-127,-4,-68,-5,-80,-54,-37,47,-106,-23,98,-95,-49,36,-44,-127,-127,64,127,-100,93,67,-95,-39,127,-127,-32,106,-35,-8,6,91,-13,25,-68,28,-6,-77,98,-14, -127,9,-60,127,-87,-127,-126,-127,80,2,-43,37,-99,-127,-48,108,-127,-127,127,127,29,-127,-104,93,-127,127,19,68,-80,-24,-105,68,-127,73,127,-26,26,127,127,-106,-43,30,22,41,-48,-127,-84,-127,-2,-113,-127,127,40,85,52,-67,27,21,87,-23,-54,-33,-127,127,-16,-127,127,127,19,60,-102,-67,-34,60,-99,-127,127,127,71,-42,-88,23,-99,63,-95,-89,127,127,127,127,-127,-127,-91,-53,99,127, 52,-1,96,58,6,-27,6,32,-46,123,-59,75,4,-11,-127,58,6,-32,15,5,-119,6,-80,-63,-3,23,127,-11,127,100,8,-111,-37,-127,-13,115,-121,2,-36,-47,-10,100,20,99,-15,-21,-13,-78,127,-91,-71,7,61,-82,-127,18,103,-9,-127,64,-32,-38,-1,43,127,-47,-14,-9,-56,0,-44,-50,-108,-127,-1,-59,1,-22,-127,-36,-75,-124,-24,127,-127,18,3,1,-40,-16,-13,38,-18,127,25,-18, 
  /* [0][2][][] */ 31,-114,44,-17,13,12,25,47,-34,-44,8,-42,10,4,7,31,-22,15,-5,39,-11,39,2,-36,22,36,-2,-6,-20,18,0,18,-18,-21,-28,-1,43,-4,-1,-20,2,17,-20,-39,-20,-17,-14,0,-9,20,-17,30,-17,-10,-36,-17,-5,0,-5,26,-38,-7,44,-14,-36,40,-36,-26,29,11,8,75,-12,17,14,3,-43,-25,-16,3,5,-36,-20,-49,-101,36,-36,-9,-93,30,0,26,-19,4,16,-15, -47,24,127,2,127,61,-34,7,-127,13,-73,-51,127,-21,-51,16,9,45,-9,-50,10,9,58,-4,68,-44,-3,28,-8,109,-13,14,-82,21,12,-38,76,37,20,-95,-19,4,-127,3,-16,2,-37,-47,0,-69,-69,100,111,-71,-36,-80,-11,127,-32,6,67,-103,83,58,-31,19,-30,11,127,-13,2,92,-64,24,-16,-72,-14,-65,-34,-35,-15,-95,-35,-82,-104,127,36,5,98,37,33,25,-28,-8,4,-4, 5,85,21,-33,6,-8,-21,40,2,64,20,-7,5,10,8,30,-29,6,-11,34,-23,30,-7,-28,11,32,13,25,4,20,-23,-69,-47,-26,-19,-13,33,-26,-1,-7,-3,-5,0,-3,-26,-4,-17,11,22,26,-13,16,-13,-12,8,-2,5,6,-4,55,-31,8,30,-17,29,10,-54,14,21,5,1,74,30,-13,-2,1,-17,-7,-11,4,-10,-78,-17,-8,-77,27,-27,-20,-84,27,8,16,-24,13,-2,-19, 
};
const TfArray<4, int> tensor_dimension11 = { 4, { 1,3,3,96 } };
const TfArray<96, float> quant11_scale = { 96, { 0.010499043390154839, 0.0079202586784958839, 0.0065855602733790874, 0.0069299894385039806, 0.01102878525853157, 0.012975454330444336, 0.012480692937970161, 0.0097871925681829453, 0.01002900768071413, 0.0068093426525592804, 0.005257963202893734, 0.017144776880741119, 0.010311409831047058, 0.0054904608987271786, 0.0072914925403892994, 0.0069406097754836082, 0.0053106630221009254, 0.011587698943912983, 0.0072311148978769779, 0.0054398444481194019, 0.0077656367793679237, 0.013234996236860752, 0.0090715335682034492, 0.0097072608768939972, 0.027449812740087509, 0.0093476232141256332, 0.011170534417033195, 0.0068038753233850002, 0.0092351166531443596, 0.0045793196186423302, 0.013209519907832146, 0.010518659837543964, 0.0072816819883882999, 0.0085912207141518593, 0.011894386261701584, 0.016740720719099045, 0.0084652146324515343, 0.013879663310945034, 0.014497596770524979, 0.0047708828933537006, 0.0090474924072623253, 0.011173207312822342, 0.010704943910241127, 0.0046714572235941887, 0.0049074813723564148, 0.0051076416857540607, 0.0091543514281511307, 0.0048078242689371109, 0.0085130771622061729, 0.0038581518456339836, 0.0052454513497650623, 0.0058695534244179726, 0.0065418952144682407, 0.0069465693086385727, 0.009278356097638607, 0.0073098656721413136, 0.0083993468433618546, 0.0090727070346474648, 0.0059682810679078102, 0.0055732997134327888, 0.0074930209666490555, 0.0093785990029573441, 0.0070581766776740551, 0.0058471099473536015, 0.0068268482573330402, 0.010787791572511196, 0.012075509876012802, 0.0082298154011368752, 0.0092198112979531288, 0.009419306181371212, 0.011568630114197731, 0.0063680601306259632, 0.0047664125449955463, 0.0098656006157398224, 0.013063274323940277, 0.0054668402299284935, 0.0066601545549929142, 0.0093981511890888214, 0.0073568238876760006, 0.0098084192723035812, 0.011200152337551117, 0.0040673492476344109, 0.0095523390918970108, 0.0081344125792384148, 0.0032401038333773613, 0.008353017270565033, 0.0062854187563061714, 0.0089953383430838585, 0.0087424777448177338, 0.0092220623046159744, 0.0049496982246637344, 0.0179313775151968, 0.0097806463018059731, 0.012996342033147812, 0.0057142116129398346, 0.013165012001991272, } };
const TfLiteAffineQuantization quant11 = { (TfLiteFloatArray*)&quant11_scale, (TfLiteIntArray*)&g0::quant6_zero, 3 };
const MODEL_SECTION(EI_MODEL_SECTION) ALIGN(16) int32_t tensor_data12[96] = { 9478, 5253, 1688, -1869, 5967, 16533, 10353, 2137, -574, 13993, 1217, -5984, 5184, 5114, 474, -924, 4095, 10233, -658, -72, 6150, 15495, 13147, -2605, -4661, -1379, 14980, 78, 2109, 1724, 12366, -2606, 13970, 3733, 4891, -6044, 1382, -6366, 318, 2774, 4121, 1959, 2650, -424, 1342, 3150, 6518, 6006, 5112, 3979, 9508, 4530, -3744, 2167, 1590, 3104, 2728, 4377, 10865, 1865, -1466, 9066, 6802, 5537, 5398, 9754, -7456, 3422, 8196, -778, 8885, 2543, 5163, 6113, 5169, 3990, -421, 3020, 3558, 4227, 4070, 5510, 13234, 1203, 3803, 5890, 1135, -1372, 19922, -734, 1240, -2135, 16069, 4147, -9, -1389, };
const TfArray<96, float> quant12_scale = { 96, { 7.837184239178896e-05, 6.8996036134194583e-05, 9.4383947725873441e-05, 0.00011170079960720614, 0.00011557736434042454, 4.9436701374361292e-05, 7.8146207670215517e-05, 0.00013147333811502904, 0.00010269967606291175, 5.6400062021566555e-05, 0.00015103393525350839, 7.8765348007436842e-05, 0.00010016786109190434, 9.4874245405662805e-05, 0.00013923797814641148, 0.00010226095764664933, 0.00014491048932541162, 7.1748057962395251e-05, 8.0121804785449058e-05, 0.00011262192856520414, 0.00010063541412819177, 5.6995275372173637e-05, 6.5221676777582616e-05, 0.00010634975478751585, 0.00011904061830136925, 0.0001038964037434198, 5.9332287491997704e-05, 7.6778494985774159e-05, 0.00011955959780607373, 0.00011026168067473918, 6.8995846959296614e-05, 0.00010791164822876453, 5.7744207879295573e-05, 0.00012706933193840086, 0.00013971531006973237, 9.8271368187852204e-05, 0.00010389003728050739, 9.59029421210289e-05, 0.00011037604417651892, 0.00010704553278628737, 0.00011187566997250542, 0.00012258173956070095, 0.0001351435057586059, 0.00014509721950162202, 0.00017957603267859668, 0.00012383752618916333, 8.9220047811977565e-05, 0.00010736497642938048, 0.00011006960994563997, 0.00012415813398547471, 7.7134449384175241e-05, 9.4381568487733603e-05, 9.9077944469172508e-05, 0.0001610150357009843, 0.00015255113248713315, 0.00013630047033075243, 0.00011624648323049769, 9.0651112259365618e-05, 7.41539042792283e-05, 0.00012120028986828402, 0.00014546350575983524, 8.158695709425956e-05, 8.6755419033579528e-05, 0.00010443798237247393, 0.00010394106357125565, 7.8454570029862225e-05, 8.0977166362572461e-05, 0.00011966940655838698, 7.6250747952144593e-05, 0.00016423276974819601, 7.8486555139534175e-05, 8.5489213233813643e-05, 8.8240456534549594e-05, 6.996635056566447e-05, 0.00010047492833109573, 7.3562674515414983e-05, 0.00014661214663647115, 0.00011338324111420661, 0.0001011359563563019, 0.00011929695756407455, 0.00010673880024114624, 7.8873643360566348e-05, 5.9211906773271039e-05, 9.2147980467416346e-05, 9.5959992904681712e-05, 0.00011315636947983876, 0.00013148352445568889, 0.00017430885054636747, 4.7508361603831872e-05, 0.0001103389950003475, 0.00014125790039543062, 0.00011277543671894819, 5.4043241107137874e-05, 9.667547419667244e-05, 0.00016563561803195626, 9.6171250334009528e-05, } };
const TfLiteAffineQuantization quant12 = { (TfLiteFloatArray*)&quant12_scale, (TfLiteIntArray*)&g0::quant6_zero, 0 };
const MODEL_SECTION(EI_MODEL_SECTION) ALIGN(16) int8_t tensor_data13[96*1*1*16] = { 
  /* [0][0][][] */ -54,49,-10,-29,-23,-60,-69,-34,60,-57,41,-57,79,-110,13,-127, 
  /* [1][0][][] */ -98,74,-116,-108,-88,33,-17,52,-40,0,97,-48,53,127,22,52, 
  /* [2][0][][] */ -48,-12,-84,14,-7,-49,29,-36,-101,127,85,7,45,68,-42,124, 
  /* [3][0][][] */ -60,-79,11,-46,-83,6,-54,-126,0,22,41,-79,-76,-46,-127,-48, 
  /* [4][0][][] */ 66,-4,-18,40,-57,-11,-127,44,18,64,17,52,0,6,-45,-87, 
  /* [5][0][][] */ -104,46,-76,-28,53,-66,-9,-76,101,-36,11,-37,17,-127,-122,-88, 
  /* [6][0][][] */ -15,-42,-27,26,-89,65,37,-43,-21,-60,127,-18,-4,-4,-109,14, 
  /* [7][0][][] */ -26,95,127,-82,61,70,-7,-51,34,60,-88,-21,46,5,28,64, 
  /* [8][0][][] */ -43,7,38,-3,62,14,90,127,-69,-20,-71,-89,42,94,-69,-69, 
  /* [9][0][][] */ 29,44,102,34,-122,-46,-92,-112,62,8,127,27,-36,-95,59,-16, 
  /* [10][0][][] */ -12,-110,7,-70,-127,72,32,28,-33,-59,-1,43,-15,58,-116,29, 
  /* [11][0][][] */ 105,-61,-4,82,-102,-39,60,-12,127,111,-55,37,18,-85,-20,103, 
  /* [12][0][][] */ -75,-59,127,-7,62,-11,28,68,61,-20,111,81,-38,26,-93,40, 
  /* [13][0][][] */ -9,-32,23,24,7,5,127,26,-105,4,11,15,-25,102,89,-62, 
  /* [14][0][][] */ 127,-79,111,13,67,69,96,56,85,67,65,38,73,-38,46,-52, 
  /* [15][0][][] */ 3,127,12,-40,28,121,-79,63,-48,-28,-36,-7,-39,121,-16,-48, 
  /* [16][0][][] */ -43,63,105,-45,17,76,-1,-12,-12,7,-12,48,82,3,80,127, 
  /* [17][0][][] */ 10,109,86,-127,26,-44,12,-73,-64,82,-20,64,-63,-21,113,-54, 
  /* [18][0][][] */ -95,5,-70,-85,127,89,-41,-63,38,90,122,71,-16,123,-45,-10, 
  /* [19][0][][] */ 47,127,80,67,53,-23,-5,-7,-25,109,46,105,62,69,-55,34, 
  /* [20][0][][] */ 103,-1,4,65,-72,-8,-35,55,-32,-56,-127,-49,88,-47,36,-10, 
  /* [21][0][][] */ -101,-83,-28,123,-37,7,-127,61,5,-12,34,26,-44,29,-74,18, 
  /* [22][0][][] */ -6,-2,-65,-44,127,-5,-39,60,53,68,46,73,-23,31,-7,35, 
  /* [23][0][][] */ -68,21,-22,12,12,61,104,87,-14,127,-19,-27,3,30,-62,-27, 
  /* [24][0][][] */ 34,-82,41,0,127,34,76,-40,55,24,44,31,-67,31,-1,-15, 
  /* [25][0][][] */ 127,-56,79,24,8,-7,-38,92,114,-28,-54,11,123,-52,97,40, 
  /* [26][0][][] */ 64,47,100,84,83,-5,-70,-20,1,76,8,127,24,-62,18,-65, 
  /* [27][0][][] */ -72,37,-76,14,-41,113,30,-109,41,-101,127,16,56,-57,127,117, 
  /* [28][0][][] */ -49,28,-85,-127,28,-78,6,-61,-96,94,-53,31,-20,24,-28,80, 
  /* [29][0][][] */ 85,95,-74,36,36,79,-44,-27,54,51,6,64,-127,12,-28,74, 
  /* [30][0][][] */ -20,71,-115,-57,80,-43,15,7,-56,50,-70,-14,9,56,-9,127, 
  /* [31][0][][] */ 17,-118,87,46,64,-64,-73,29,-19,-3,19,-34,-77,53,35,127, 
  /* [32][0][][] */ -64,52,8,34,-103,47,19,64,18,-127,20,-82,22,34,34,47, 
  /* [33][0][][] */ -74,-10,61,85,-6,20,-50,12,-40,-54,10,-14,-13,-6,8,127, 
  /* [34][0][][] */ -19,5,-87,-92,56,-9,-9,59,22,-6,-1,-10,-59,-27,-40,127, 
  /* [35][0][][] */ 73,-13,23,-9,2,19,-81,-19,-13,-127,-59,6,-9,-36,45,-29, 
  /* [36][0][][] */ -8,19,-119,-14,36,127,-8,43,-21,10,58,31,15,26,-79,51, 
  /* [37][0][][] */ 64,47,59,-50,65,-127,45,-15,-117,68,-88,-34,17,29,112,38, 
  /* [38][0][][] */ -30,127,23,-43,30,23,72,-94,8,3,-97,35,-42,-83,-73,16, 
  /* [39][0][][] */ 89,48,-127,-106,-20,-18,17,-54,8,-9,10,-42,68,11,-108,-59, 
  /* [40][0][][] */ -36,29,-83,-88,-49,-10,19,-127,-9,-8,11,-32,44,79,38,60, 
  /* [41][0][][] */ -36,-99,-13,127,0,-20,-70,-15,-6,-54,66,-65,-72,-13,3,25, 
  /* [42][0][][] */ -14,65,-17,-127,15,17,11,-34,60,1,-46,11,72,-25,-17,17, 
  /* [43][0][][] */ 3,43,-1,23,127,32,18,24,5,33,2,-79,-117,-41,-9,-16, 
  /* [44][0][][] */ 84,-14,24,44,-34,-8,1,32,26,-44,31,12,127,4,-52,-29, 
  /* [45][0][][] */ 12,-94,-59,44,-47,-98,13,43,28,-30,15,41,-93,127,38,-32, 
  /* [46][0][][] */ -19,-82,47,77,-8,-7,-97,49,27,-50,55,-18,38,74,76,127, 
  /* [47][0][][] */ -39,-57,21,76,4,-5,58,22,7,-67,-127,-39,40,-35,-68,18, 
  /* [48][0][][] */ -68,93,-21,-33,11,62,-9,-127,24,-23,31,-52,49,-115,-61,-5, 
  /* [49][0][][] */ -54,11,37,-32,-3,9,119,127,-34,-36,-6,22,-41,34,-44,33, 
  /* [50][0][][] */ 52,22,-88,30,38,-127,-42,-8,-75,56,-52,-3,24,-93,-125,-54, 
  /* [51][0][][] */ -44,55,-26,113,-42,38,-49,-69,-46,-79,8,-45,-4,33,-6,127, 
  /* [52][0][][] */ -127,7,18,-7,21,45,64,9,12,-85,-42,-42,-104,-57,-123,-8, 
  /* [53][0][][] */ -53,-77,-49,-127,-43,-12,16,75,35,-60,-47,28,-31,23,60,107, 
  /* [54][0][][] */ 3,-59,5,-4,-58,60,56,-20,-18,-92,52,29,-22,-13,-127,40, 
  /* [55][0][][] */ -23,-31,-34,25,66,-30,60,89,-57,-51,-127,-29,55,-27,-29,33, 
  /* [56][0][][] */ 73,-31,-59,-26,-127,27,-115,-2,-17,-17,-35,14,106,-35,50,11, 
  /* [57][0][][] */ -53,17,22,-34,127,40,55,35,-30,52,0,-7,-53,74,-107,-23, 
  /* [58][0][][] */ 24,4,-4,-17,37,-8,-42,-61,43,-127,-57,2,-73,-45,-28,54, 
  /* [59][0][][] */ -61,-20,-10,15,11,59,-90,-46,80,127,-82,7,-16,3,-11,5, 
  /* [60][0][][] */ 18,-47,0,17,-127,-44,29,3,-9,40,-15,48,-1,-37,37,45, 
  /* [61][0][][] */ 25,33,-91,-7,-43,-17,-127,-73,-14,13,43,102,70,-56,112,57, 
  /* [62][0][][] */ 51,-26,58,-31,-25,30,41,127,-72,125,17,101,24,36,79,122, 
  /* [63][0][][] */ 25,-119,-14,-19,-75,13,43,-30,-12,-17,0,-9,-33,127,109,30, 
  /* [64][0][][] */ -2,-1,-127,-40,24,52,28,-24,-9,-91,44,0,60,-34,-73,95, 
  /* [65][0][][] */ -5,-7,60,52,74,-24,77,74,-42,-9,-127,-78,30,96,-69,-18, 
  /* [66][0][][] */ -50,-127,-1,-102,-60,-122,44,-26,-7,-34,15,88,-72,-45,-76,77, 
  /* [67][0][][] */ -21,-76,-93,-27,-85,123,-5,-127,-85,-22,-34,-102,28,-6,-62,39, 
  /* [68][0][][] */ 127,45,29,-19,-72,10,-78,-49,-83,-109,-31,-11,31,-33,64,-74, 
  /* [69][0][][] */ 41,6,45,-22,-6,-47,-42,23,-7,127,-32,2,0,28,62,-22, 
  /* [70][0][][] */ 39,-10,-22,66,-108,30,-9,-88,96,127,21,53,54,-55,-7,23, 
  /* [71][0][][] */ 127,-91,75,127,-108,-50,40,-24,119,16,-51,58,68,-66,39,20, 
  /* [72][0][][] */ -15,-40,42,109,68,5,-127,87,93,-3,52,10,-48,-71,-87,90, 
  /* [73][0][][] */ 64,18,73,-127,71,-91,-76,46,-21,105,-41,23,6,-85,21,-50, 
  /* [74][0][][] */ 84,3,41,50,-127,-27,45,1,-78,-49,16,-38,34,-66,14,24, 
  /* [75][0][][] */ 87,127,-112,25,58,58,-15,-30,-25,-33,56,75,-110,60,58,88, 
  /* [76][0][][] */ -69,-42,6,-47,-47,-11,84,-9,-56,30,90,42,-57,-127,-26,82, 
  /* [77][0][][] */ -73,127,-19,13,-54,-94,59,94,58,-73,-14,72,-30,55,-19,101, 
  /* [78][0][][] */ 125,53,-70,40,-76,42,-127,-13,-10,-8,-64,6,40,-96,36,60, 
  /* [79][0][][] */ -76,-36,127,57,-35,-107,-51,-63,-26,30,23,20,-73,125,-67,83, 
  /* [80][0][][] */ 58,101,33,-127,-14,26,102,-26,22,28,-33,18,96,-54,11,-4, 
  /* [81][0][][] */ 46,-72,15,-123,98,41,-17,127,116,28,-27,-56,-14,17,-92,-81, 
  /* [82][0][][] */ 82,45,79,2,127,-112,25,42,-1,104,-32,34,-9,-49,41,-112, 
  /* [83][0][][] */ -42,79,25,5,90,60,127,115,-4,48,-38,-68,-103,100,-67,-110, 
  /* [84][0][][] */ 10,-101,-11,100,9,-86,-91,40,-85,70,-69,-17,-127,66,0,-66, 
  /* [85][0][][] */ -92,47,-37,-4,-17,-36,-50,-29,-21,37,8,-65,-127,-76,-60,41, 
  /* [86][0][][] */ -9,56,101,111,35,-43,55,14,12,28,-58,-70,26,68,-127,-66, 
  /* [87][0][][] */ -22,40,127,-29,-90,-34,21,14,33,-19,6,44,-54,13,-13,-6, 
  /* [88][0][][] */ -35,-71,-127,25,45,45,-7,20,-16,-84,-113,-100,124,-19,2,49, 
  /* [89][0][][] */ 40,26,16,-116,3,-64,-58,51,127,-16,30,-99,11,-32,64,-78, 
  /* [90][0][][] */ -4,61,26,6,-37,32,42,110,3,-62,-12,127,45,8,-45,82, 
  /* [91][0][][] */ -52,5,-23,71,72,57,-34,-119,-44,26,-6,21,-107,-127,-58,-8, 
  /* [92][0][][] */ -39,64,2,-26,-127,-3,-95,62,-50,53,103,86,-23,-20,62,3, 
  /* [93][0][][] */ 103,37,104,51,-127,-80,18,30,-16,-63,-22,-69,29,-58,-2,2, 
  /* [94][0][][] */ -33,-127,29,-100,16,30,-17,9,83,-16,-2,49,9,52,-44,40, 
  /* [95][0][][] */ -40,-62,-26,-58,120,115,-28,43,90,54,-77,61,-29,127,-77,41, 
};
const TfArray<96, float> quant13_scale = { 96, { 0.0015419732080772519, 0.0013575033517554402, 0.0018570128595456481, 0.0021977236028760672, 0.00227399542927742, 0.00097267166711390018, 0.0015375339426100254, 0.0025867500808089972, 0.0020206256303936243, 0.0011096764355897903, 0.0029716065619140863, 0.001549715525470674, 0.0019708119798451662, 0.0018666596151888371, 0.0027395202778279781, 0.0020119938999414444, 0.0028511274140328169, 0.0014116497477516532, 0.0015764039708301425, 0.0022158469073474407, 0.0019800111185759306, 0.0011213873513042927, 0.0012832426000386477, 0.0020924413111060858, 0.0023421351797878742, 0.0020441713277250528, 0.0011673682602122426, 0.0015106239588931203, 0.0023523462004959583, 0.0021694088354706764, 0.0013574996264651418, 0.0021231716964393854, 0.001136122620664537, 0.0025001009926199913, 0.0027489117346704006, 0.0019334983080625534, 0.0020440460648387671, 0.0018868993502110243, 0.0021716589108109474, 0.0021061308216303587, 0.0022011641412973404, 0.0024118071887642145, 0.0026589611079543829, 0.0028548012487590313, 0.0035331749822944403, 0.0024365147110074759, 0.0017554126679897308, 0.0021124158520251513, 0.0021656297612935305, 0.0024428227916359901, 0.0015176275046542287, 0.0018569661770015955, 0.0019493678119033575, 0.0031679857056587934, 0.003001457778736949, 0.0026817244943231344, 0.0022871603723615408, 0.0017835689941421151, 0.0014589849160984159, 0.0023846270050853491, 0.0028620080556720495, 0.0016052309656515718, 0.0017069209134206176, 0.0020548270549625158, 0.0020450500305742025, 0.0015436009271070361, 0.0015932332025840878, 0.0023545066360384226, 0.0015002405270934105, 0.0032312949188053608, 0.0015442302683368325, 0.0016820082673802972, 0.0017361391801387072, 0.0013765944167971611, 0.0019768534693866968, 0.0014473524643108249, 0.0028846075292676687, 0.0022308258339762688, 0.001989859389141202, 0.0023471787571907043, 0.0021000958513468504, 0.0015518462751060724, 0.0011649997904896736, 0.0018130200915038586, 0.0018880218267440796, 0.0022263620048761368, 0.0025869505479931831, 0.0034295427612960339, 0.00093473138986155391, 0.0021709299180656672, 0.0027792623732239008, 0.0022188671864569187, 0.0010633057681843638, 0.0019020988838747144, 0.0032588962931185961, 0.0018921783193945885, } };
const TfLiteAffineQuantization quant13 = { (TfLiteFloatArray*)&quant13_scale, (TfLiteIntArray*)&g0::quant6_zero, 0 };
const MODEL_SECTION(EI_MODEL_SECTION) ALIGN(16) int32_t tensor_data14[16] = { -30868, -9151, 5873, -16757, 13263, -16028, 28021, -11038, 13479, -11487, 14535, 14128, -6337, -35326, -1836, 5568, };
const TfArray<16, float> quant14_scale = { 16, { 7.9713201557751745e-05, 5.0992159231100231e-05, 5.7772573200054467e-05, 5.2662118832813576e-05, 7.5699608714785427e-05, 0.00012329006858635694, 4.846192678087391e-05, 5.2338651585159823e-05, 9.8327385785523802e-05, 9.1628717200364918e-05, 9.1372836322989315e-05, 7.3595299909356982e-05, 7.193099008873105e-05, 6.658616621280089e-05, 6.1732396716251969e-05, 6.2858722230885178e-05, } };
const TfLiteAffineQuantization quant14 = { (TfLiteFloatArray*)&quant14_scale, (TfLiteIntArray*)&g0::quant8_zero, 0 };
const MODEL_SECTION(EI_MODEL_SECTION) ALIGN(16) int8_t tensor_data15[16*1*1*96] = { 
  /* [0][0][][] */ 20,29,7,22,-20,-74,-9,-2,-19,-68,16,-5,51,-61,55,26,-84,-25,40,10,74,24,-68,8,-10,67,127,65,12,75,53,-38,1,-2,4,-23,33,29,-13,-12,112,18,28,-23,-5,-6,8,-37,21,-40,89,-8,-71,-2,38,29,-7,-37,3,17,-10,39,-60,-16,16,-1,68,31,-2,-19,27,24,5,42,11,37,52,-35,51,19,-11,43,36,34,-51,9,-12,67,16,6,-90,-18,22,14,109,65, 
  /* [1][0][][] */ 27,46,-55,-12,-8,-48,103,-74,-61,-36,-61,-44,-4,-41,-6,-62,-29,-20,-29,-11,-22,-90,117,-30,-2,22,6,60,-49,14,-35,18,-38,29,18,10,-17,62,-59,83,36,16,3,-51,63,-63,-3,41,-92,-4,57,-106,-42,42,67,58,29,30,-70,16,-44,6,-10,-22,40,34,112,11,-49,-127,14,10,19,71,-18,41,-61,-37,113,-29,48,-17,61,-58,-23,-59,-24,14,-20,-47,29,-1,69,-55,-30,60, 
  /* [2][0][][] */ 3,-20,16,-14,66,39,-55,22,-58,39,10,-29,33,-13,16,34,29,-30,-127,-13,-12,-45,-14,17,-1,-18,-47,20,-39,-23,-22,68,-13,-40,0,12,-46,20,-25,-14,64,9,0,36,2,57,1,-10,-77,5,-22,13,-24,50,9,-60,37,17,42,31,-20,-15,-23,57,33,-6,-38,-5,-5,-6,-18,-39,25,45,22,63,-48,-5,-30,-34,29,33,48,-19,-15,-45,-8,-52,-11,-30,-10,63,0,-12,76,-43, 
  /* [3][0][][] */ 40,-33,-26,-106,-12,-31,114,-25,29,118,-72,-14,9,-18,-15,56,60,47,-20,22,-48,26,16,9,-47,81,54,-3,-38,-8,-62,68,-4,-15,31,-23,6,-49,-29,55,10,11,-15,26,60,-54,0,35,42,-28,31,-42,98,39,31,-2,-2,-18,-6,-47,-32,40,70,-9,-26,-21,123,-36,-42,-11,-48,29,13,-67,8,-69,12,-51,127,-8,-8,-58,-40,-44,-28,-43,68,76,-42,41,-62,-1,12,-75,-15,33, 
  /* [4][0][][] */ -24,77,31,16,-16,10,-33,-19,17,-35,-1,-10,25,43,-19,18,-6,-40,-14,-67,23,-31,-63,19,-27,-31,-19,15,-34,127,-48,-19,4,-38,1,-28,65,45,-34,2,18,9,14,-36,-44,-9,54,-20,23,-18,-58,-7,-66,25,45,23,1,58,-20,19,-35,-68,-24,1,55,26,-60,-8,0,1,11,-65,-16,60,55,66,-36,13,-58,39,19,60,28,-57,45,-65,-32,-67,-36,-48,-49,-18,-3,11,36,-27, 
  /* [5][0][][] */ -2,-12,42,-17,-15,-17,-15,0,35,10,-13,-2,-17,-27,21,-23,-10,7,-50,-32,-25,17,-18,14,23,-45,64,-22,-3,41,13,73,-10,-81,17,11,-33,-25,-27,2,-47,-1,-24,13,4,16,-71,24,-16,20,50,-7,25,-77,7,14,-26,-52,8,-32,37,25,22,42,-37,6,109,-23,-3,-25,15,18,-6,29,36,13,-5,-18,127,41,-20,-11,-28,28,40,65,1,94,-1,-37,-7,10,9,-14,-29,23, 
  /* [6][0][][] */ 18,-61,67,9,-35,112,-52,-99,-28,-78,-95,64,5,10,-36,99,4,38,14,-46,-82,-29,-93,-68,2,-54,-9,81,-118,52,-25,-29,48,91,-13,2,-8,-45,15,-22,-70,36,36,-38,19,57,-105,-11,50,4,-88,-127,80,15,-45,-15,32,-30,24,-27,-9,-52,38,4,53,-79,-75,-61,-108,17,-22,-85,-26,-102,23,-110,91,18,-80,41,-40,90,19,-103,67,-49,-12,-3,-73,84,-88,93,51,-53,69,-112, 
  /* [7][0][][] */ -14,-8,-65,62,-25,-7,38,1,-97,5,78,56,-4,-57,-3,-34,-9,-4,5,1,-45,-24,-43,-45,66,48,-3,76,0,30,16,32,-51,-127,32,110,-6,16,-46,3,-7,-15,8,-76,26,61,73,79,-20,41,-46,-1,22,-38,40,-55,-12,37,-82,-22,61,11,7,-34,75,-46,103,-14,-67,-24,67,1,-13,-28,-77,-21,28,-33,96,-38,-5,-16,-75,-31,47,15,-70,40,-4,15,0,28,68,-6,88,-14, 
  /* [8][0][][] */ -10,-58,9,5,-12,-1,19,-4,-11,-6,41,44,12,24,-40,-5,64,2,11,3,-12,-69,-31,-16,-25,-35,66,4,-15,47,9,-26,-14,2,4,-3,-42,-15,20,-24,-1,40,23,-35,15,-18,21,-13,34,-2,49,5,-1,7,-41,-3,-18,101,-54,-1,-12,-59,-59,-9,-82,-37,-17,18,-4,14,39,-18,-29,-127,41,-103,8,10,-58,19,-25,-6,4,56,58,-59,-38,48,-36,85,12,-20,-49,4,-3,-56, 
  /* [9][0][][] */ -23,-25,-26,24,1,20,5,38,-39,0,59,51,-26,50,25,-48,-14,36,-19,-38,-3,37,-4,11,-22,24,9,11,36,-4,17,-7,-18,-17,7,49,-16,-2,26,-1,-8,-22,11,4,11,43,3,37,-40,9,-10,26,127,15,-8,-2,12,-13,32,17,-32,4,80,7,15,23,65,6,34,-4,-16,25,3,-120,-34,-115,-32,-16,40,1,-1,30,6,-39,41,15,-55,1,-5,108,37,29,49,37,-10,32, 
  /* [10][0][][] */ 18,40,11,-6,-19,17,-38,-21,61,9,-33,20,14,8,-8,-49,-34,3,16,-2,27,-12,-20,-32,11,-21,-94,45,-18,55,-4,14,18,25,-13,5,16,0,3,-2,39,-13,56,-43,-32,-3,15,23,14,4,9,-20,-24,-10,-1,31,-8,5,-8,-5,-9,-37,-10,13,-6,-15,-90,-29,-48,-13,40,-15,-17,31,30,18,50,-15,-91,9,-14,32,-2,-7,4,11,-64,-127,-20,22,12,23,51,-32,15,30, 
  /* [11][0][][] */ 16,-38,-3,7,-53,26,14,10,70,-18,-24,-45,22,12,12,-7,-26,50,22,-63,10,27,13,-29,33,13,61,5,27,-55,-29,17,18,100,-98,2,15,-17,52,10,-53,45,-15,12,-42,5,-12,-5,46,-23,-28,-19,-20,21,-75,87,-25,-2,-6,-32,21,0,-8,-63,-8,-41,-127,-75,-5,-34,-93,27,54,17,-11,-3,33,60,-111,-38,-15,-7,-16,-4,-20,-9,58,73,23,-45,5,7,-32,26,81,29, 
  /* [12][0][][] */ 25,31,-39,-23,11,-26,10,38,59,-35,24,1,-2,-12,-3,8,12,-39,-22,17,7,56,4,56,-43,-35,-127,-14,75,-21,27,-3,-22,-76,68,-4,38,-9,-4,14,0,-54,17,37,49,-5,29,-12,-77,-5,-49,94,75,-24,36,-73,7,27,-42,-33,11,57,78,1,-10,-13,37,30,109,26,29,27,0,-14,-8,-2,-39,-63,50,-70,27,-52,34,-36,9,9,1,-103,-13,33,-45,23,12,74,17,44, 
  /* [13][0][][] */ -16,18,-75,28,26,17,-9,7,31,68,-34,44,-49,-23,59,-51,10,49,64,16,-30,-39,-6,14,39,49,-16,26,10,40,57,-16,-13,65,0,48,19,-33,-50,-52,7,-17,20,19,44,49,-27,45,-51,32,3,-1,-18,-37,59,36,17,-40,-16,-14,29,25,3,-27,20,87,127,40,17,2,-44,-19,41,53,-77,56,16,-72,126,-43,-12,-36,26,5,25,56,-31,-23,-11,-26,6,47,39,16,64,58, 
  /* [14][0][][] */ -7,55,16,28,-64,-44,25,44,-74,-22,78,11,-81,-4,73,-27,-45,40,-56,27,-31,27,-99,17,-53,3,-49,-117,15,-1,31,79,-63,30,12,-17,-23,-67,-14,-44,34,-32,52,-19,-7,47,-71,29,-18,-45,88,26,-14,26,-30,26,-61,36,1,45,36,69,-6,38,18,-48,8,-63,38,63,80,38,-57,39,13,18,25,-18,44,17,-66,116,2,-127,88,0,-6,11,-109,-20,-24,-9,-31,17,43,38, 
  /* [15][0][][] */ 70,-32,25,30,40,3,-12,-8,22,33,-62,-21,70,69,-4,-18,-11,7,-79,53,8,-31,14,26,65,-34,90,33,44,-33,-46,68,71,57,2,-82,59,70,63,53,93,36,-18,9,-40,-120,39,-35,-36,-25,-17,-8,-9,-49,-30,56,-7,8,-17,16,5,-52,-31,35,42,51,-82,38,-11,-35,-8,-5,6,-126,-48,-105,-22,25,-127,30,78,-37,48,29,-54,-7,-6,-25,42,98,11,-61,-31,-32,35,-42, 
};
const TfArray<16, float> quant15_scale = { 16, { 0.0038136793300509453, 0.00243959273211658, 0.0027639847248792648, 0.0025194878689944744, 0.0036216590087860823, 0.0058985059149563313, 0.0023185401223599911, 0.0025040123146027327, 0.0047042286023497581, 0.0043837474659085274, 0.0043715056963264942, 0.00352098373696208, 0.0034413589164614677, 0.0031856491696089506, 0.0029534327331930399, 0.0030073188245296478, } };
const TfLiteAffineQuantization quant15 = { (TfLiteFloatArray*)&quant15_scale, (TfLiteIntArray*)&g0::quant8_zero, 0 };
const MODEL_SECTION(EI_MODEL_SECTION) ALIGN(16) int32_t tensor_data16[96] = { 10816, -1410, -6641, 7885, 1102, 571, -141, -1440, 2638, -4597, 305, -2446, 14484, -3955, -3045, -10778, 532, 603, -12640, 393, -2779, 265, -8936, -198, 31, 12051, -12129, -6861, -134, -3676, -107, -394, 21868, 271, -3129, -82, 738, 15661, 4721, 11774, 721, 7158, -46, 7103, 403, 674, 13017, 2866, -7187, -309, -4428, 837, -943, -3953, -11, 2531, 1581, 3772, 71, 1270, -498, 95, -1031, 9693, 12676, 1250, 13946, 11047, -1606, -224, 14130, -1542, -32, 1061, -5078, 442, 22656, 13548, 14095, 13871, 20754, -1885, 10453, 10905, -2241, -1233, 12224, -9393, 11943, 502, -11724, -2371, -415, -382, 26094, -1564, };
const TfArray<96, float> quant16_scale = { 96, { 0.00010166910942643881, 0.00021481377189047635, 0.00014759600162506104, 0.00013920600758865476, 0.0001638195535633713, 0.00036379930679686368, 8.3357263065408915e-05, 0.00018285385158378631, 0.00029296043794602156, 0.0002129016793332994, 0.00021971651585772634, 0.00012569705722853541, 6.7023516749031842e-05, 0.00013362556637730449, 0.00017436902271583676, 0.00010666884190868586, 0.00019421869365032762, 0.00023628442431800067, 9.4530187197960913e-05, 0.0002374127070652321, 0.00019072707800660282, 0.00018646143143996596, 8.1421290815342218e-05, 0.00013422270421870053, 0.0019177523208782077, 0.00010982828825945035, 0.0001755257835611701, 0.00012543285265564919, 0.00020203867461532354, 0.00015629718836862594, 0.00013175503409001976, 0.00022864712809678167, 6.0842143284389749e-05, 0.00032058183569461107, 0.00010836646106326953, 0.000148249018820934, 0.00023470315500162542, 8.7089581938926131e-05, 0.00017224725161213428, 9.446548210689798e-05, 0.00043993518920615315, 0.00014693637785967439, 0.00017080552061088383, 0.00012317467189859599, 0.00011099523544544354, 0.00019362141028977931, 0.0001117193532991223, 0.00020653373212553561, 0.00015395750233437866, 0.00030382993281818926, 0.00020940371905453503, 0.00019608000002335757, 0.0001127406139858067, 0.00024779263185337186, 0.00020057120127603412, 0.00022064530639909208, 0.00014274672139436007, 0.00028043179190717638, 0.00027087837224826217, 0.00027758843498304486, 0.00019634135242085904, 0.00023193385277409106, 0.00011606233601924032, 9.8747361334972084e-05, 0.00020885095000267029, 0.00032584549626335502, 0.00011246526992181316, 0.00011746009840862826, 0.00020695202692877501, 0.00025109548005275428, 9.7786243713926524e-05, 0.00019143107056152076, 0.00036694778827950358, 0.00014544998703058809, 0.00012765570136252791, 0.00016845444042701274, 5.7505083532305434e-05, 0.00012580008478835225, 9.7095107776112854e-05, 0.00013207296433392912, 6.9736815930809826e-05, 0.00021500520233530551, 8.3371509390417486e-05, 0.00024175416911020875, 7.0882677391637117e-05, 0.00021503109019249678, 0.00010266550816595554, 0.00016790619702078402, 0.00010531553562032059, 0.00017779537301976234, 8.5716492321807891e-05, 0.00018443920998834074, 0.00024694486637599766, 0.00011895336501765996, 7.0027141191530973e-05, 0.00020213096286170185, } };
const TfLiteAffineQuantization quant16 = { (TfLiteFloatArray*)&quant16_scale, (TfLiteIntArray*)&g0::quant6_zero, 0 };
const MODEL_SECTION(EI_MODEL_SECTION) ALIGN(16) int8_t tensor_data17[1*3*3*96] = { 
  /* [0][0][][] */ -48,-6,6,-39,86,-3,31,-12,-5,-5,-12,-30,-35,2,0,-12,-19,1,-6,-21,-7,25,23,43,-3,-26,-27,3,14,-2,29,3,-6,3,-6,-33,-5,-68,-39,1,-3,1,35,-27,-23,36,-61,-21,-24,11,-8,49,-56,7,33,-14,-4,-11,7,-14,-11,-18,-14,-47,-25,-28,-45,-30,-8,25,-6,1,37,0,-2,0,-8,18,127,-12,-127,10,-114,-19,-28,-18,31,11,-19,-17,11,-29,-5,35,-31,7, -27,39,49,-65,-44,2,127,-52,-1,-16,-36,5,-79,4,-81,90,-13,69,73,-34,-9,127,93,123,31,-9,40,70,127,32,127,-34,-127,-17,-72,-35,-27,-81,127,-40,-31,-127,-16,-39,64,-36,-34,-7,45,6,20,127,-84,43,-85,-8,-81,-7,-4,27,-13,-127,-127,-56,-53,-5,-7,-88,-4,14,-80,108,-127,-16,7,-31,-127,-72,-6,-80,-113,8,15,-58,123,74,-72,29,-127,0,41,-11,6,127,-49,-86, -42,3,-1,-12,55,-1,43,-22,-21,13,-11,-1,-11,-4,0,-20,-16,-4,-10,-30,-11,8,28,34,-4,-18,-3,-12,6,5,16,7,-29,2,-17,55,-6,-64,-35,8,-7,-13,17,-9,-14,-26,-42,-28,-14,1,-7,34,1,-2,4,-16,48,-18,9,-19,-11,-9,-46,0,-32,-40,127,-26,0,20,2,9,20,4,1,15,-7,42,-46,-7,-85,2,-121,-18,13,-29,12,-21,-30,-33,13,50,0,32,-19,11, 
  /* [0][1][][] */ -75,-3,34,-58,38,103,-37,-15,-5,-13,-26,-19,-127,19,24,84,-16,36,88,19,26,-20,127,-29,35,18,67,22,-16,-1,-5,-21,-104,-15,61,-16,-13,-127,-64,-127,-20,3,91,-32,-71,127,-102,-83,52,64,15,-45,-107,66,64,-26,23,-33,36,-8,12,-11,97,-83,-36,9,-28,-61,-6,-4,-127,15,80,127,12,-78,-104,-71,-58,-50,-89,-7,-25,-58,47,23,-106,58,-51,127,99,-81,127,8,-67,-6, 80,127,127,127,-127,-127,106,-60,127,127,-77,-68,-103,127,-24,127,127,-127,127,127,127,-80,77,-127,-127,-127,127,127,-119,127,-22,127,-74,127,127,-97,127,74,2,-7,127,-6,-127,-104,127,-30,127,127,127,-127,127,-118,115,127,-127,127,-127,127,-127,127,-99,113,116,-127,127,127,-12,127,-102,-127,-21,-127,18,107,127,66,-12,-127,87,-127,51,127,127,127,127,64,-127,127,-90,49,2,-21,-87,-19,-127,-33, -127,-26,30,-57,7,56,-50,0,-38,-11,-4,127,-111,15,27,71,-26,47,72,3,12,-25,76,-24,35,10,37,7,-12,-2,12,-19,-89,-30,76,127,-7,-94,-80,-81,-31,-29,27,-39,-61,-69,-96,-111,45,69,-3,-28,127,8,92,-48,88,-31,50,-37,3,-32,-127,-33,-71,-16,-49,-69,-15,5,-116,-1,36,-95,5,127,-88,-48,-61,5,-119,-13,-65,-80,7,27,-91,44,-27,-77,127,127,-44,-17,-80,-9, 
  /* [0][2][][] */ -11,-40,-24,-14,30,-1,-13,19,-11,4,32,-27,47,2,-5,-30,-2,-8,-49,-22,-17,-10,27,-24,4,-16,-5,5,-4,-12,-22,7,18,-2,-1,-27,-7,-37,-25,-13,-26,7,22,11,17,8,-63,0,-28,5,-16,-18,-11,-25,29,-15,1,-20,8,-14,-1,21,11,6,-31,-28,115,21,30,23,-12,0,-2,-10,-5,-30,-9,13,-33,-18,-31,3,-77,-20,-14,-5,48,-14,13,4,-7,-19,-13,-8,-25,-3, -20,-56,18,-79,-49,0,59,127,-54,57,127,-31,-74,14,127,99,-8,-33,68,-49,-28,-33,116,17,19,-24,30,8,-15,4,-86,-42,-64,-31,-78,-5,-93,-85,40,-48,-23,-96,-39,127,31,-26,-48,-4,30,-11,-6,-10,62,34,-47,-40,-53,-52,46,-48,127,30,112,-5,-86,-53,-20,-50,127,26,-52,14,30,-27,21,-26,-32,-49,1,32,-89,-24,-74,-72,38,-127,0,16,-28,-3,52,2,16,-109,-64,127, -28,4,-18,5,22,-9,3,12,-23,-6,14,37,50,-1,-3,-32,-6,11,-12,-27,-15,-5,5,-10,-2,-17,-16,-8,-4,-1,-32,2,-1,2,-3,-1,-10,-47,-34,-7,-34,6,-1,8,22,-6,-60,4,-24,-3,-10,-17,8,-31,28,-17,48,-14,13,-19,4,22,-13,15,-27,-30,-24,25,28,7,-24,-1,-45,-38,-7,-9,-32,5,96,-3,-32,1,-59,-7,-9,2,42,8,8,-4,-6,17,2,-14,-15,-8, 
};
const TfArray<96, float> quant17_scale = { 96, { 0.0059045525267720222, 0.012475560419261456, 0.0085718100890517235, 0.0080845514312386513, 0.00951401237398386, 0.02112806960940361, 0.0048410706222057343, 0.01061945129185915, 0.017014019191265106, 0.012364514172077179, 0.012760293669998646, 0.0073000038973987103, 0.0038924692198634148, 0.0077604609541594982, 0.010126684792339802, 0.0061949174851179123, 0.01127947773784399, 0.0137224942445755, 0.0054899509996175766, 0.013788020238280296, 0.011076698079705238, 0.010828965343534946, 0.0047286367043852806, 0.0077951406128704548, 0.11137570440769196, 0.0063784061931073666, 0.010193864814937115, 0.0072846598923206329, 0.011733632534742355, 0.0090771419927477837, 0.007651827298104763, 0.013278949074447155, 0.0035334785934537649, 0.018618164584040642, 0.0062935086898505688, 0.008609735406935215, 0.013630660250782967, 0.0050578294321894646, 0.010003460571169853, 0.0054861931130290031, 0.025549750775098801, 0.008533501997590065, 0.0099197300150990486, 0.0071535129100084305, 0.0064461780712008476, 0.011244789697229862, 0.0064882319420576096, 0.011994687840342522, 0.0089412620291113853, 0.017645278945565224, 0.012161365710198879, 0.011387575417757034, 0.006547542754560709, 0.014390846714377403, 0.011648407205939293, 0.012814234010875225, 0.0082901827991008759, 0.016286404803395271, 0.015731578692793846, 0.016121271997690201, 0.011402753181755543, 0.013469829224050045, 0.0067404559813439846, 0.0057348683476448059, 0.012129263021051884, 0.018923858180642128, 0.0065315519459545612, 0.0068216323852539062, 0.012018980458378792, 0.014582662843167782, 0.0056790504604578018, 0.011117583140730858, 0.021310921758413315, 0.0084471777081489563, 0.0074137537740170956, 0.0097831888124346733, 0.0033396750222891569, 0.0073059871792793274, 0.0056389118544757366, 0.0076702916994690895, 0.0040500471368432045, 0.012486678548157215, 0.0048418976366519928, 0.01404015626758337, 0.0041165943257510662, 0.012488181702792645, 0.0059624193236231804, 0.0097513487562537193, 0.0061163227073848248, 0.010325673967599869, 0.0049780854023993015, 0.010711522772908211, 0.014341611415147781, 0.0069083557464182377, 0.0040669082663953304, 0.011738992296159267, } };
const TfLiteAffineQuantization quant17 = { (TfLiteFloatArray*)&quant17_scale, (TfLiteIntArray*)&g0::quant6_zero, 3 };
const MODEL_SECTION(EI_MODEL_SECTION) ALIGN(16) int32_t tensor_data18[96] = { 1961, 10542, 327, 2059, 5420, 20950, 320, 3144, 18314, -1295, 24154, 5195, 2264, 595, 6169, 531, 2871, 5540, -516, 12339, 1575, 10165, -1513, 2508, -11442, 1821, 3547, 2122, 9116, 1196, 5036, 5439, 2016, 14281, 5782, 5619, 4761, 2890, 4647, 3344, 24920, 1902, 2648, 1902, 3915, 9884, 7692, 11462, 1297, -1051, 2340, 8002, 3225, -3836, 9559, 282, 3585, 17188, 1634, 2498, 2994, 12449, 5239, -349, 22357, 18594, 3065, 4848, 8318, 6331, 2955, 2027, -4900, 6319, 2965, 4723, 351, 16085, 5141, 8761, 3862, 1250, 6514, 16571, 51, 12595, 7643, 2498, -869, 3975, 1545, 17420, 4455, 3556, 5666, 6560, };
const TfArray<96, float> quant18_scale = { 96, { 0.00016843917546793818, 7.3571492976043373e-05, 0.00023312865232583135, 0.00017718123854137957, 0.00012192174472147599, 4.4210653868503869e-05, 0.00017674361879471689, 0.00010262537398375571, 4.8751680878922343e-05, 0.00013181685062590986, 3.5965636925539002e-05, 9.5069073722697794e-05, 0.00013594173651654273, 0.00028636257047764957, 8.909686584956944e-05, 0.00010066637332784012, 0.00021056171681266278, 0.00011141081631649286, 0.00010803227633005008, 7.4146053520962596e-05, 0.0001660428533796221, 7.5931493483949453e-05, 0.00015550694661214948, 0.00011067622835980728, 6.5420936152804643e-05, 0.00011570654169190675, 0.0001394621649524197, 0.00016301845607813448, 9.6320560260210186e-05, 0.00020779775513801724, 0.00011643913603620604, 0.00010145151463802904, 0.00019933469593524933, 5.9294499806128442e-05, 9.3441391072701663e-05, 0.00010970020230161026, 0.00012681301450356841, 0.00014650929369963706, 0.00010397184087196365, 0.0001242968428414315, 3.8922476960578933e-05, 0.000136877570184879, 0.00013688436592929065, 9.8344906291458756e-05, 9.7199212177656591e-05, 8.4629755292553455e-05, 8.9727400336414576e-05, 6.8286601162981242e-05, 0.00021018282859586179, 0.00022128412092570215, 0.00017805336392484605, 8.9798319095280021e-05, 0.00014359780470840633, 0.00010430937254568562, 7.9039142292458564e-05, 0.00023519794922322035, 9.9993172625545412e-05, 5.2234016038710251e-05, 0.00011632501991698518, 0.00010720898717409, 0.00014134177763480693, 7.0257541665341705e-05, 0.00011598940909607336, 0.00016226203297264874, 4.3934061977779493e-05, 4.9792306526796892e-05, 0.00014403734530787915, 0.00012087653885828331, 9.202105866279453e-05, 8.2345322880428284e-05, 0.00016400740423705429, 0.00010730662324931473, 0.00011831671872641891, 0.00010432728595333174, 0.00012220835196785629, 0.00013404384662862867, 0.00017591079813428223, 5.2125731599517167e-05, 0.00011580190766835585, 9.7067102615255862e-05, 0.00011504725989652798, 0.00013791733363177627, 7.964748510858044e-05, 5.6266442697960883e-05, 8.667266956763342e-05, 5.8103229093831033e-05, 9.0638721303548664e-05, 0.00015883272862993181, 0.00014630331133957952, 0.00014250772073864937, 0.00013315188698470592, 4.8829449951881543e-05, 0.00011713692219927907, 0.00011172442464157939, 9.4804832770023495e-05, 9.8791577329393476e-05, } };
const TfLiteAffineQuantization quant18 = { (TfLiteFloatArray*)&quant18_scale, (TfLiteIntArray*)&g0::quant6_zero, 0 };
const MODEL_SECTION(EI_MODEL_SECTION) ALIGN(16) int8_t tensor_data19[96*1*1*16] = { 
  /* [0][0][][] */ 50,5,0,53,-127,-28,98,55,68,95,-25,46,15,7,38,78, 
  /* [1][0][][] */ -20,24,-98,6,127,109,0,-5,-22,13,-57,33,-47,90,-58,-45, 
  /* [2][0][][] */ -35,57,79,-5,65,80,3,39,40,-3,35,-20,49,-127,-6,8, 
  /* [3][0][][] */ 127,-33,21,1,36,34,-7,14,41,34,-55,-23,-38,53,-26,58, 
  /* [4][0][][] */ -78,-12,4,45,-123,-10,-86,-37,-10,28,-9,-55,-17,39,-36,127, 
  /* [5][0][][] */ -98,16,32,13,127,30,5,5,-49,33,-27,15,-67,60,-104,-41, 
  /* [6][0][][] */ -127,28,-41,25,-13,-66,72,12,10,-34,-49,37,14,-2,-45,9, 
  /* [7][0][][] */ -10,99,53,-100,62,51,127,14,38,2,3,53,80,34,-36,9, 
  /* [8][0][][] */ -38,-23,-67,52,-52,86,-38,-72,20,-38,81,43,127,49,-97,13, 
  /* [9][0][][] */ -29,-127,-19,81,-46,-64,-9,64,47,43,10,71,-79,18,-9,-31, 
  /* [10][0][][] */ -42,-54,-106,57,-127,114,52,-77,3,-69,68,-34,35,111,-71,88, 
  /* [11][0][][] */ -43,-100,-40,32,-6,96,36,-3,23,10,47,-91,21,114,-109,127, 
  /* [12][0][][] */ -22,-94,-92,103,-98,-127,14,62,91,79,-31,115,3,-61,-28,-17, 
  /* [13][0][][] */ -68,-24,-34,-3,-15,1,33,19,-20,127,-9,-23,36,35,14,-9, 
  /* [14][0][][] */ -117,-23,-53,-54,-21,95,-28,-114,127,-60,68,-7,95,-67,-87,-92, 
  /* [15][0][][] */ -1,-127,104,-62,-63,-37,10,62,13,-53,-94,-36,83,-39,-32,-48, 
  /* [16][0][][] */ -23,-32,30,-41,31,26,-16,-20,59,-127,33,-21,-10,-3,-79,-86, 
  /* [17][0][][] */ -22,13,24,-62,25,1,-41,4,95,-68,27,68,121,-86,-31,-127, 
  /* [18][0][][] */ 74,4,-37,-123,5,-26,127,-54,28,62,-9,66,-2,77,-3,-126, 
  /* [19][0][][] */ -42,-34,-24,-56,-116,36,-17,3,28,-47,33,-127,-12,-19,-12,-6, 
  /* [20][0][][] */ 17,79,61,-88,70,1,-44,86,-101,-127,42,-84,-37,114,-22,-11, 
  /* [21][0][][] */ 16,-124,-127,-4,111,32,92,114,-85,-98,-34,15,126,-119,-27,25, 
  /* [22][0][][] */ 62,-13,77,-14,8,6,61,31,29,127,27,22,-6,-4,111,-6, 
  /* [23][0][][] */ -116,-67,-17,63,65,37,12,14,-2,8,-3,-91,-3,66,64,127, 
  /* [24][0][][] */ 12,-9,38,28,15,-89,11,-63,17,127,-113,75,-23,-61,70,-69, 
  /* [25][0][][] */ 127,-59,103,106,49,16,-13,41,-102,78,43,-60,-9,17,67,-18, 
  /* [26][0][][] */ -19,27,8,40,-58,116,-15,35,-56,-37,-77,34,5,20,48,-127, 
  /* [27][0][][] */ 33,-8,-4,-54,-50,-1,-88,16,-110,-21,-74,-42,-81,45,-25,127, 
  /* [28][0][][] */ -73,11,28,4,24,-16,-127,7,0,-37,-5,-12,15,-49,-70,-27, 
  /* [29][0][][] */ -20,-111,-27,94,-31,9,127,2,78,53,-108,68,37,-27,-47,71, 
  /* [30][0][][] */ 40,-52,-63,10,-127,27,54,-31,13,-9,7,-22,-19,49,-6,74, 
  /* [31][0][][] */ -127,-16,5,97,-40,15,-53,-5,-27,-62,11,-36,-28,-62,-26,95, 
  /* [32][0][][] */ -124,-77,-103,-3,-97,-46,4,-22,127,59,-50,-63,46,50,30,-22, 
  /* [33][0][][] */ -14,4,-86,38,-127,-101,52,-2,-121,23,-49,-53,-24,106,70,72, 
  /* [34][0][][] */ 48,73,-1,36,-79,-48,35,5,31,-127,-14,45,-35,-7,43,90, 
  /* [35][0][][] */ 42,-4,-69,-18,-127,19,90,-37,26,52,-16,-11,21,75,30,63, 
  /* [36][0][][] */ -9,-9,-56,58,127,-26,37,65,-85,22,-74,-71,30,-12,11,24, 
  /* [37][0][][] */ -127,52,-1,-77,45,-100,-41,-30,-15,-26,-25,50,60,-84,20,-122, 
  /* [38][0][][] */ 46,105,21,-76,-92,-51,-127,-62,-32,-60,40,62,-67,-103,74,-14, 
  /* [39][0][][] */ -7,-59,14,79,13,74,81,-43,-32,48,11,-28,-17,127,61,122, 
  /* [40][0][][] */ 111,41,88,93,-54,-55,-9,27,-74,69,-16,-24,-50,-34,127,-5, 
  /* [41][0][][] */ -25,-10,5,61,-98,123,6,51,-57,25,-110,16,26,39,57,-127, 
  /* [42][0][][] */ 4,-105,25,-16,127,37,66,17,-31,-108,-95,-29,-14,-16,-6,42, 
  /* [43][0][][] */ -50,-110,-49,13,121,16,-14,102,-83,-78,-127,-84,116,-7,-72,68, 
  /* [44][0][][] */ -33,-45,-76,-86,24,73,67,8,-29,-127,-56,75,-35,48,34,110, 
  /* [45][0][][] */ -9,-60,-63,-7,-127,63,-29,-54,56,-49,24,-48,2,16,-35,48, 
  /* [46][0][][] */ 29,-77,-21,6,91,-79,-14,89,-2,-21,43,68,-55,-50,51,-127, 
  /* [47][0][][] */ -88,-34,-3,92,-9,4,35,48,-5,127,77,83,-47,81,-11,107, 
  /* [48][0][][] */ 40,-11,-79,-94,35,-66,9,57,42,-76,-5,23,-63,7,-46,-127, 
  /* [49][0][][] */ 48,40,9,27,-8,-25,52,44,-35,127,-37,39,-39,-23,67,85, 
  /* [50][0][][] */ 8,-1,11,8,-127,-17,-9,-47,56,17,21,50,-19,-64,16,-5, 
  /* [51][0][][] */ 16,-6,-5,-127,-22,97,52,-50,13,9,35,-48,77,85,-23,20, 
  /* [52][0][][] */ 23,-16,-6,-78,78,-103,-6,-39,40,-1,127,-51,40,11,-35,93, 
  /* [53][0][][] */ -52,-59,56,-31,-45,-127,22,-98,-11,87,-100,76,-40,-15,24,-78, 
  /* [54][0][][] */ 69,68,46,-23,-127,-38,-98,-102,-4,17,50,68,-79,-55,58,6, 
  /* [55][0][][] */ 16,7,-31,69,-33,27,36,-20,5,127,16,61,3,4,2,40, 
  /* [56][0][][] */ 36,-127,-69,94,-86,40,-1,73,124,1,51,45,-28,-44,62,101, 
  /* [57][0][][] */ 54,29,95,-84,83,-4,-5,-10,90,-33,15,127,57,-55,94,-62, 
  /* [58][0][][] */ 80,-67,17,-65,35,10,-9,127,49,96,-4,67,48,21,88,-6, 
  /* [59][0][][] */ -41,41,25,-50,5,-84,3,4,10,24,-113,-98,-127,-59,67,-19, 
  /* [60][0][][] */ 36,-24,18,19,13,-22,8,-52,21,127,-10,61,-9,-25,-15,-27, 
  /* [61][0][][] */ 70,53,16,-20,-76,-127,-25,-65,-54,-9,-29,13,-68,-50,82,76, 
  /* [62][0][][] */ -21,91,-42,42,-58,127,-41,23,-62,6,-40,30,-26,42,57,-85, 
  /* [63][0][][] */ 25,-9,-62,-127,-21,-41,83,-15,-7,-98,-31,32,-36,67,29,-29, 
  /* [64][0][][] */ -36,20,11,-22,56,-65,32,85,-127,-18,-71,-39,-30,84,61,64, 
  /* [65][0][][] */ -63,-7,-46,-17,62,46,-35,-82,-127,-60,3,-33,-105,100,-53,53, 
  /* [66][0][][] */ -16,58,-5,31,-48,127,-22,27,-63,19,-34,45,-30,49,54,-88, 
  /* [67][0][][] */ 16,-20,-40,-36,7,-90,70,-100,-11,27,9,123,-60,-28,-28,-127, 
  /* [68][0][][] */ 5,-127,-33,81,-16,1,27,90,36,36,61,15,-74,39,-14,-6, 
  /* [69][0][][] */ 11,73,87,-111,51,0,-35,103,29,95,49,91,102,-86,35,-127, 
  /* [70][0][][] */ 42,34,43,-40,96,12,-93,-55,-127,-88,-4,44,-31,64,-108,-4, 
  /* [71][0][][] */ -28,-76,29,-47,78,-7,51,36,-88,80,-127,-46,16,102,-28,57, 
  /* [72][0][][] */ 20,20,71,16,-66,-28,-119,-75,-2,68,-33,59,29,114,-127,-11, 
  /* [73][0][][] */ 5,-44,-15,-48,50,-123,28,-48,84,100,108,-20,26,-28,-78,127, 
  /* [74][0][][] */ 6,-3,-31,86,-83,-8,95,29,75,59,32,116,127,27,-55,13, 
  /* [75][0][][] */ -32,38,-25,30,-46,127,-17,23,-35,29,-40,43,-16,50,32,-64, 
  /* [76][0][][] */ -65,95,-63,41,-104,-1,-6,19,57,51,-37,-41,54,-42,-127,37, 
  /* [77][0][][] */ 104,108,-121,127,70,68,70,44,41,12,109,-33,84,41,66,25, 
  /* [78][0][][] */ 18,-33,2,-58,67,-127,33,-60,54,46,124,-25,12,-22,-41,120, 
  /* [79][0][][] */ -44,53,6,21,-6,-46,-38,-5,-127,-8,50,6,96,37,-79,-42, 
  /* [80][0][][] */ -76,23,86,4,68,45,-10,-127,-81,60,-74,-53,-10,-104,34,62, 
  /* [81][0][][] */ 90,78,-21,-3,31,-29,78,113,-111,127,-68,-40,-52,25,112,118, 
  /* [82][0][][] */ 50,119,-31,-71,-10,-56,117,-97,20,25,-64,76,127,-14,75,-48, 
  /* [83][0][][] */ 2,-32,16,28,-3,34,-28,-110,66,-41,104,17,40,-69,-58,-127, 
  /* [84][0][][] */ -127,-84,-47,-21,-12,108,102,3,85,67,108,100,69,83,-86,14, 
  /* [85][0][][] */ 118,7,97,-85,81,0,-24,82,25,127,-68,3,-35,59,119,12, 
  /* [86][0][][] */ -79,73,-35,4,27,80,24,16,86,35,127,-20,-27,65,-8,-17, 
  /* [87][0][][] */ 12,-58,23,-46,46,-127,28,-34,49,-10,69,-36,37,-42,-40,71, 
  /* [88][0][][] */ -87,64,36,-6,111,-23,43,16,-66,-78,111,-68,82,122,102,-127, 
  /* [89][0][][] */ -28,41,-11,30,-37,127,-15,35,-50,9,-41,20,-6,64,31,-86, 
  /* [90][0][][] */ 52,-73,28,17,127,-8,46,34,-6,-87,-118,-22,-17,-11,-58,25, 
  /* [91][0][][] */ -2,73,-27,-51,10,-78,-108,27,-75,32,-122,-121,-127,-85,-11,9, 
  /* [92][0][][] */ 62,43,62,30,-127,-88,17,11,-25,30,-25,-37,-28,-80,20,1, 
  /* [93][0][][] */ -11,-127,-123,75,-45,-53,-14,110,103,68,7,68,-64,72,-11,-29, 
  /* [94][0][][] */ 108,16,119,-20,26,-35,20,35,30,84,3,62,20,13,127,-7, 
  /* [95][0][][] */ -50,-37,-23,-23,127,-7,44,67,-35,-4,-102,-59,23,6,-59,34, 
};
const TfArray<96, float> quant19_scale = { 96, { 0.0039256466552615166, 0.0017146585742011666, 0.0054333005100488663, 0.004129389300942421, 0.0028415103442966938, 0.0010303743183612823, 0.0041191899217665195, 0.0023917888756841421, 0.0011362076038494706, 0.0030721258372068405, 0.00083821575390174985, 0.0022156815975904465, 0.003168260445818305, 0.0066739711910486221, 0.0020764931105077267, 0.0023461324162781239, 0.0049073551781475544, 0.0025965424720197916, 0.0025178021751344204, 0.0017280493630096316, 0.0038697978015989065, 0.0017696607392281294, 0.0036242478527128696, 0.0025794222019612789, 0.0015247015981003642, 0.0026966587174683809, 0.0032503078691661358, 0.0037993111182004213, 0.002244848757982254, 0.0048429383896291256, 0.0027137326542288065, 0.0023644308093935251, 0.0046456982381641865, 0.001381918671540916, 0.0021777467336505651, 0.0025566748809069395, 0.0029555065557360649, 0.003414548235014081, 0.002423169557005167, 0.0028968644328415394, 0.00090712792007252574, 0.0031900710891932249, 0.0031902294140309095, 0.0022920281626284122, 0.0022653266787528992, 0.0019723826553672552, 0.0020911884494125843, 0.0015914887189865112, 0.0048985248431563377, 0.0051572518423199654, 0.0041497149504721165, 0.0020928413141518831, 0.0033466930035501719, 0.0024310362059623003, 0.0018420877167955041, 0.0054815276525914669, 0.0023304426576942205, 0.0012173668947070837, 0.0027110730297863483, 0.002498614601790905, 0.0032941140234470367, 0.0016374235274270177, 0.0027032513171434402, 0.0037816818803548813, 0.0010239280527457595, 0.0011604604078456759, 0.0033569368533790112, 0.002817150903865695, 0.0021446445025503635, 0.0019191416213288903, 0.0038223594892770052, 0.0025008900556713343, 0.0027574915438890457, 0.0024314536713063717, 0.0028481902554631233, 0.0031240282114595175, 0.0040997802279889584, 0.0012148432433605194, 0.0026988813187927008, 0.0022622477263212204, 0.0026812935248017311, 0.003214303869754076, 0.0018562657060101628, 0.0013113467721268535, 0.002019994892179966, 0.0013541548978537321, 0.0021124277263879776, 0.0037017585709691048, 0.0034097477328032255, 0.0033212876878678799, 0.0031032401602715254, 0.0011380200739949942, 0.0027299951761960983, 0.0026038514915853739, 0.0022095232270658016, 0.0023024382535368204, } };
const TfLiteAffineQuantization quant19 = { (TfLiteFloatArray*)&quant19_scale, (TfLiteIntArray*)&g0::quant6_zero, 0 };
const MODEL_SECTION(EI_MODEL_SECTION) ALIGN(16) int32_t tensor_data20[16] = { -5337, 11138, -21712, 722, 14594, -17609, -46529, -10206, -6540, 7606, -18710, -14971, 6929, -14140, -4215, -3382, };
const TfArray<16, float> quant20_scale = { 16, { 0.00013252675125841051, 0.0001308176142629236, 0.00013721955474466085, 0.00014721066690981388, 9.1170753876212984e-05, 0.00012068940850440413, 8.2693484728224576e-05, 0.00012429888010956347, 9.9876277090515941e-05, 8.1537131336517632e-05, 0.00015753839397802949, 0.00012331598554737866, 0.00011758824985008687, 6.8680077674798667e-05, 0.0001332748361164704, 0.00011930633627343923, } };
const TfLiteAffineQuantization quant20 = { (TfLiteFloatArray*)&quant20_scale, (TfLiteIntArray*)&g0::quant8_zero, 0 };
const MODEL_SECTION(EI_MODEL_SECTION) ALIGN(16) int8_t tensor_data21[16*1*1*48] = { 
  /* [0][0][][] */ 29,39,22,-38,71,67,-43,57,-14,112,3,45,-33,37,-12,42,36,83,41,-66,-74,79,-4,54,61,43,38,54,-47,-53,-7,88,-24,11,-72,55,51,-127,-38,14,13,-32,66,-4,-9,-56,-64,-14, 
  /* [1][0][][] */ -50,1,-82,-45,13,93,-53,19,-14,-37,-41,37,61,-16,-29,-27,-25,-29,-2,16,-68,48,-102,-43,-49,-37,50,70,-27,-31,45,-39,15,-56,-33,52,14,-56,127,-34,-20,32,-44,-12,35,55,30,22, 
  /* [2][0][][] */ 1,0,60,-32,-21,-81,19,21,106,81,-70,11,109,-47,127,82,-73,-26,-35,35,87,-84,-37,-103,9,-34,33,-71,44,49,-47,10,30,-31,57,40,-68,9,4,-30,30,26,63,-18,19,-89,94,-61, 
  /* [3][0][][] */ 37,6,-26,-24,31,111,14,-15,39,-51,26,-21,-47,7,8,38,-40,-63,38,-123,-8,-1,-24,-15,-42,89,127,64,-11,-39,30,43,62,-26,95,36,-43,-53,4,37,28,17,-15,3,26,22,-7,-19, 
  /* [4][0][][] */ 105,-6,9,-49,96,89,54,14,68,-20,-105,35,45,-25,12,-16,-98,-123,-25,-102,-22,25,-45,-36,-86,127,-102,127,-62,-54,32,84,41,-56,16,-33,-5,15,-25,29,-56,-11,-9,54,-50,110,-32,-54, 
  /* [5][0][][] */ -1,-7,-58,9,-16,52,22,-25,64,55,38,91,50,-25,29,-1,-40,127,-16,37,12,1,-69,-12,38,2,-64,-37,-17,26,17,-15,-36,4,44,13,-45,4,-83,7,91,-18,29,45,-17,8,-41,31, 
  /* [6][0][][] */ 57,17,13,75,6,-26,99,-51,0,68,127,100,44,50,-51,57,37,-42,-75,91,53,-67,-40,58,-90,88,90,-6,118,51,-33,0,93,-63,-118,-3,97,36,5,-2,11,59,61,-35,63,121,38,-9, 
  /* [7][0][][] */ -96,-4,-26,26,-61,-55,21,53,79,111,-54,-75,-94,14,-15,-16,-77,100,-1,117,-46,39,27,39,-22,-96,-31,-80,33,38,-5,9,-20,11,15,-15,2,-56,127,9,6,42,23,-16,54,71,-27,-4, 
  /* [8][0][][] */ -13,-85,53,-62,63,-56,68,-37,-29,-113,31,14,-34,0,24,25,2,9,-40,98,1,36,-20,30,66,-7,-55,-30,-127,-23,-51,-108,11,-59,1,81,-7,33,109,21,12,0,70,112,-7,-67,-43,81, 
  /* [9][0][][] */ 23,-41,26,-68,46,85,-34,51,17,-39,-36,-14,20,-50,117,-14,11,-118,44,40,-76,45,57,-38,-21,-79,-25,80,55,73,-39,-25,-49,32,-12,127,-25,-45,-58,-21,-30,-1,39,111,63,86,-72,17, 
  /* [10][0][][] */ -14,21,-21,-6,22,27,-63,-40,50,38,65,-9,-36,-8,46,-48,-61,127,0,48,4,-11,20,31,-41,43,7,93,36,5,-35,-7,72,12,-5,24,-11,-49,-35,24,-83,1,26,-16,20,45,29,32, 
  /* [11][0][][] */ -29,46,-22,37,27,55,1,9,16,17,-127,-70,73,22,-6,-45,-1,27,-46,-48,-11,-10,106,3,45,9,-17,31,-5,28,-7,51,26,-5,-50,2,41,82,100,17,35,-30,62,-1,-56,-18,88,3, 
  /* [12][0][][] */ -66,1,33,20,-61,-56,3,3,-41,-39,-127,16,74,-99,19,31,52,111,88,-127,-30,45,-42,-80,-1,-20,39,-29,7,14,-15,78,72,85,43,-34,-60,-27,34,1,-36,20,64,-1,40,-12,-38,-34, 
  /* [13][0][][] */ -58,-114,-51,-100,8,25,56,16,-127,23,125,-61,60,42,124,3,122,29,-2,-95,81,-84,122,6,-82,5,-23,11,-38,-102,-110,18,52,-27,-71,67,29,-54,85,-80,-6,59,72,41,57,-33,112,-62, 
  /* [14][0][][] */ 65,20,-56,3,-37,18,-85,-26,-31,55,58,48,-13,-60,12,-48,54,-110,26,8,84,-56,25,-2,-7,125,-84,5,-57,-30,-86,3,127,45,88,-20,-82,15,-23,59,-13,-44,105,-25,-53,-42,-55,56, 
  /* [15][0][][] */ -61,14,42,19,96,2,0,36,22,75,-18,51,53,-15,-34,-17,10,36,1,-35,28,-38,-45,-51,53,-66,-36,66,-30,3,13,6,-57,2,127,-3,-88,14,56,-15,-48,-19,22,-3,-33,-33,-9,9, 
};
const TfArray<4, int> tensor_dimension21 = { 4, { 16,1,1,48 } };
const TfArray<16, float> quant21_scale = { 16, { 0.0064223860390484333, 0.0063395597971975803, 0.0066498047672212124, 0.0071339844726026058, 0.0044182310812175274, 0.0058487360365688801, 0.0040074135176837444, 0.00602365517988801, 0.0048401099629700184, 0.0039513753727078438, 0.007634477224200964, 0.0059760231524705887, 0.0056984508410096169, 0.0033283091615885496, 0.0064586391672492027, 0.0057817110791802406, } };
const TfLiteAffineQuantization quant21 = { (TfLiteFloatArray*)&quant21_scale, (TfLiteIntArray*)&g0::quant8_zero, 0 };
const MODEL_SECTION(EI_MODEL_SECTION) ALIGN(16) int32_t tensor_data22[48] = { 14760, -1039, 21920, -68, 16557, -2405, 35131, 255, 10932, 32242, 2634, 22868, 4220, 11243, 32815, 23733, 149, 294, 4749, 49416, -212, 20373, -726, 16506, 19496, 33713, -1016, -1135, -1085, 14241, 22837, -26, -918, 380, 614, 17041, 10351, 34833, 2528, 18317, 29949, 827, 582, 17889, -421, 958, 42869, 26042, };
const TfArray<1, int> tensor_dimension22 = { 1, { 48 } };
const TfArray<48, float> quant22_scale = { 48, { 7.7740915003232658e-05, 0.00011657027062028646, 5.8362355048302561e-05, 0.00013087299885228276, 9.1970199719071388e-05, 7.818057929398492e-05, 5.9153564507141709e-05, 0.00024212578136939555, 0.0001015684028971009, 7.0649519329890609e-05, 6.4153929997701198e-05, 0.00010717514669522643, 5.5958782468223944e-05, 0.00012305799464229494, 5.2224222599761561e-05, 7.7549033449031413e-05, 9.4982962764333934e-05, 6.5610758611001074e-05, 0.00014097796520218253, 4.4536904169945046e-05, 7.9710494901519269e-05, 6.152005516923964e-05, 0.00013145619595889002, 8.5053485236130655e-05, 5.9257246903143823e-05, 7.4279785621911287e-05, 6.8739303969778121e-05, 4.210078259347938e-05, 0.00023895825142972171, 0.00010018936882261187, 7.015636219875887e-05, 0.00036108362837694585, 0.00015636254101991653, 0.00018885415920522064, 9.1370413429103792e-05, 7.5110219768248498e-05, 9.482145105721429e-05, 4.883256769971922e-05, 8.2956539699807763e-05, 9.5419454737566411e-05, 4.9285121349385008e-05, 0.00017442496027797461, 0.00034276754013262689, 7.4208306614309549e-05, 0.00015694089233875275, 6.1358085076790303e-05, 4.6042463509365916e-05, 6.1168291722424328e-05, } };
const TfArray<48, int> quant22_zero = { 48, { 0,0,0,0,0,0,0,0,0,0,0,0,0,0,0,0,0,0,0,0,0,0,0,0,0,0,0,0,0,0,0,0,0,0,0,0,0,0,0,0,0,0,0,0,0,0,0,0 } };
const TfLiteAffineQuantization quant22 = { (TfLiteFloatArray*)&quant22_scale, (TfLiteIntArray*)&quant22_zero, 0 };
const MODEL_SECTION(EI_MODEL_SECTION) ALIGN(16) int8_t tensor_data23[1*3*3*48] = { 
  /* [0][0][][] */ -98,60,-127,97,-94,64,-47,84,-72,-66,60,-50,61,-78,-37,-49,71,68,83,-106,93,-119,75,-87,-104,-54,64,120,-100,-59,-87,47,78,-91,63,-98,-80,-117,84,-53,-8,-84,119,-93,101,56,-84,-50, -115,85,-66,115,-77,114,-47,108,-112,-97,102,-71,92,-107,-57,-75,94,104,127,-127,120,-127,90,-127,-112,-87,76,127,24,-89,-104,98,104,-127,92,-115,-95,-127,110,-77,-96,104,125,-104,-30,99,-98,-96, -65,47,-6,35,-22,59,-29,33,-53,-40,42,-21,41,-47,-24,-14,36,49,61,-38,38,-60,29,-47,-85,-30,29,32,96,-35,-67,17,32,-82,30,-40,-20,-29,47,-46,-110,-32,30,-54,-65,63,-29,-70, 
  /* [0][1][][] */ -101,88,-67,111,-75,103,-112,97,-103,-90,81,-85,91,-104,-88,-103,97,86,-54,-97,98,-118,101,-82,-122,-91,101,113,-127,-82,-105,90,98,27,94,-111,-100,-119,101,-88,-125,-107,114,-123,127,68,-123,-91, -127,127,-113,127,-127,127,-127,127,-127,-127,127,-127,127,-127,-127,-127,127,127,-62,-122,127,-122,127,-124,-127,-127,127,117,11,-127,-127,127,127,38,127,-127,-127,-104,127,-127,-127,127,127,-127,-52,127,-127,-127, -80,80,-100,37,-54,38,-61,72,-57,-40,56,-47,51,-58,-53,-16,67,55,-49,-35,31,-57,39,-52,-124,-52,51,51,96,-54,-71,60,40,7,50,-44,-31,-16,61,-64,-49,-62,38,-70,-86,78,-30,-77, 
